const data = {"type":"LSTM","options":{"inputSize":24,"inputRange":24,"hiddenLayers":[20,20],"outputSize":24,"decayRate":0.999,"smoothEps":1e-8,"regc":0.000001,"clipval":5,"maxPredictionLength":100,"dataFormatter":{"indexTable":{"I":0," ":1,"c":2,"a":3,"n":4,"'":5,"t":6,"u":7,"s":8,"e":9,"p":10,"l":11,"A":12,"H":13,"Q":14,"S":15,"o":16,"r":17,"f":18,"i":19,"d":20,"stop-input":21,"start-output":22,"unrecognized":23},"characterTable":{"0":"I","1":" ","2":"c","3":"a","4":"n","5":"'","6":"t","7":"u","8":"s","9":"e","10":"p","11":"l","12":"A","13":"H","14":"Q","15":"S","16":"o","17":"r","18":"f","19":"i","20":"d","21":null,"22":null,"23":null},"values":[{"input":"I can't use panel","output":"panel"},{"input":"AHQ Store failed to run","output":"astore"}],"characters":["I"," ","c","a","n","'","t","u","s","e","p","l","A","H","Q","S","o","r","f","i","d","stop-input","start-output","unrecognized"],"specialIndexes":[21,22,23]}},"trainOpts":{"iterations":300,"errorThresh":0.005,"logPeriod":10,"learningRate":0.01,"callbackPeriod":10,"timeout":"Infinity"},"input":{"rows":25,"columns":24,"weights":[0.522208034992218,0.31624990701675415,-0.3674733340740204,-0.28688883781433105,-0.4484044313430786,0.5603084564208984,-0.6718581318855286,-0.18442389369010925,-0.354087233543396,-0.25506269931793213,0.1568533480167389,0.7485368251800537,0.165292426943779,-0.6441342234611511,-0.20908425748348236,-0.25304970145225525,-0.45339149236679077,-0.2333252876996994,0.8440777659416199,-0.061868589371442795,-0.2563985586166382,0.0297270305454731,-0.2526693344116211,0.33203527331352234,-0.5783690214157104,-0.6299630403518677,0.4985000491142273,-0.6346631050109863,0.5091050863265991,-0.7735922336578369,0.7919610738754272,0.5843716859817505,-0.3330622613430023,0.649445652961731,-0.33696508407592773,-0.8207481503486633,0.01964425854384899,0.5726078748703003,-0.9536551833152771,0.21730732917785645,0.8031113147735596,0.356965571641922,-0.6883158087730408,0.47870486974716187,-0.3327498137950897,-0.5328859686851501,0.8806625008583069,-0.5630272030830383,0.08081042766571045,-1.014465570449829,0.09770363569259644,-0.9827031493186951,-0.05812377482652664,-0.08960556983947754,0.13571910560131073,0.8444234728813171,-1.050270438194275,0.09277944266796112,-0.924415647983551,0.2795025110244751,0.9619278907775879,0.34180715680122375,0.06318682432174683,0.8398716449737549,0.954474925994873,-1.143710970878601,1.092978835105896,0.9524257183074951,-0.7420705556869507,-0.9723089933395386,0.8556748628616333,-0.9928028583526611,-0.7397097945213318,-0.44683054089546204,0.06418172270059586,-0.6341367959976196,1.0973422527313232,-1.0646721124649048,0.9899075031280518,0.5594098567962646,-0.06510826200246811,1.1310968399047852,-0.4794154763221741,-1.0005519390106201,0.28785884380340576,0.47424671053886414,-0.8225213885307312,0.36445489525794983,0.5951717495918274,0.16425484418869019,0.5447028279304504,0.6149440407752991,-0.6463485956192017,-0.46291249990463257,0.8892476558685303,-0.502763569355011,-0.46215763688087463,-0.5937586426734924,0.6221962571144104,-0.4748745262622833,0.018502889201045036,-0.36485177278518677,0.7193006277084351,0.8092740774154663,-0.5772731304168701,0.12750159204006195,-0.8077347874641418,-0.24310341477394104,0.6218768358230591,0.5729042887687683,0.0867752805352211,0.9127569794654846,0.6696670651435852,-0.5638054609298706,0.8185124397277832,0.6102838516235352,-0.3412397801876068,-0.6176429390907288,0.35555800795555115,-0.7493382096290588,-0.07455312460660934,-1.345470666885376,0.2656521201133728,-0.7270230650901794,-0.3657832145690918,-0.16501423716545105,0.09841708093881607,1.0820976495742798,-1.0106459856033325,-0.040380410850048065,-1.0665404796600342,-0.28481385111808777,0.9263842701911926,0.17271170020103455,-0.14051471650600433,1.2951321601867676,1.2566858530044556,-0.9839120507240295,0.6140297055244446,1.0621742010116577,-0.06707234680652618,-1.2540723085403442,1.0905067920684814,-1.177290916442871,0.1075403019785881,-0.7665669918060303,-0.30059704184532166,-1.3888494968414307,-1.2729365825653076,0.22602388262748718,-0.23130930960178375,0.5916345715522766,-1.3715444803237915,-0.1508980244398117,-0.5782834887504578,-0.1982264518737793,1.1625100374221802,0.35533109307289124,-0.38135749101638794,0.5372230410575867,0.4832543134689331,-1.6711584329605103,1.2360010147094727,0.5900251269340515,-2.0152692794799805,-0.7612340450286865,0.6552978754043579,-0.896256685256958,-0.37682288885116577,0.029914837330579758,0.2454988956451416,0.5997182726860046,0.6664435267448425,-0.4832412004470825,0.4321565628051758,-0.21354946494102478,0.828377902507782,0.3638017475605011,0.1386723816394806,-0.29162725806236267,-0.24419939517974854,0.705840528011322,-0.07364795356988907,-0.1288505494594574,-0.10888231545686722,0.7332279086112976,-0.5728510022163391,-0.8381375074386597,0.6382162570953369,0.8231886029243469,-0.7553086876869202,0.11401167511940002,0.9467204809188843,-0.7282845973968506,-1.1276695728302002,-0.8313063979148865,-0.8104935884475708,0.9510989785194397,-1.4601935148239136,0.4183892011642456,-1.1314098834991455,-0.5031304955482483,-0.8237114548683167,0.5522853136062622,0.5558054447174072,-0.9046856164932251,0.30343255400657654,0.6371648907661438,0.42649784684181213,-1.6438502073287964,1.2316957712173462,0.7970390915870667,-1.1090947389602661,-1.1914169788360596,1.1237517595291138,-0.7688907384872437,-0.35765543580055237,-0.18228879570960999,-0.7142741680145264,1.4741547107696533,0.10646290332078934,-0.6015301942825317,0.5400872230529785,-1.4278395175933838,0.21521708369255066,0.14607645571231842,2.476595401763916,-0.6635644435882568,1.3298306465148926,0.6686038374900818,-2.1741251945495605,-1.671203851699829,1.0333857536315918,-0.10267756879329681,-2.9248006343841553,-1.6736304759979248,1.1449265480041504,0.9196632504463196,-0.07478011399507523,0.8506961464881897,-0.5323034524917603,1.0813010931015015,1.0498536825180054,1.0335209369659424,-1.0094460248947144,-0.13854505121707916,-0.18205925822257996,-0.11690445989370346,1.5393816232681274,0.08454544097185135,-0.26498448848724365,-0.9607521295547485,-2.933846950531006,-1.0129857063293457,0.5646531581878662,-0.17378674447536469,-1.5270873308181763,2.2848424911499023,-0.5030237436294556,0.182926207780838,1.6533979177474976,0.5409969687461853,-0.8558700680732727,0.6461429595947266,-2.524613618850708,0.755796492099762,0.8520697355270386,0.612281858921051,-1.5963958501815796,-1.0720140933990479,2.730275869369507,0.34939396381378174,1.0651569366455078,-0.7833063006401062,-0.5173798203468323,-1.5590475797653198,-1.9290815591812134,0.74000483751297,1.541183590888977,0.7374928593635559,0.21760499477386475,1.441592812538147,0.20768006145954132,-0.532461941242218,0.29844343662261963,0.9472743272781372,-1.0455422401428223,0.3659854829311371,0.40594157576560974,-0.5028411746025085,0.5087169408798218,0.1331874430179596,-0.5476690530776978,0.5403440594673157,-0.19238683581352234,1.5651193857192993,0.28677305579185486,-1.0180540084838867,-1.6331244707107544,0.2745593786239624,-0.6232641339302063,-0.513623833656311,0.9876881837844849,1.7590171098709106,0.518933892250061,0.4808215796947479,0.7688310742378235,1.1744790077209473,0.1614355593919754,-0.8530114889144897,0.7036929726600647,-1.3890612125396729,0.6956260204315186,0.5308077931404114,0.05326838046312332,-0.8693023324012756,-0.8846763968467712,0.3475129008293152,-0.12318091094493866,0.3677085041999817,-1.1445062160491943,-0.5205950140953064,0.5034323334693909,0.9165006279945374,0.8284205794334412,-0.548416018486023,0.8137755990028381,-0.42487794160842896,-0.519361138343811,-1.0262517929077148,1.1481825113296509,0.7320560216903687,-1.3038500547409058,-0.8728159070014954,0.7348098158836365,0.08098240196704865,0.3949457108974457,-1.8863481283187866,-0.4037032723426819,-0.41565555334091187,1.8924981355667114,0.36614352464675903,-0.2682589590549469,1.2960551977157593,-0.6277421712875366,-0.481684148311615,-1.790165662765503,0.47788605093955994,-0.6624654531478882,-0.654843270778656,1.4508352279663086,1.928759217262268,1.3165147304534912,-0.5699208378791809,1.7017302513122559,1.269021987915039,0.8967419862747192,-1.1714290380477905,0.8160433173179626,-1.5052777528762817,-0.41780009865760803,1.5563665628433228,-0.20168592035770416,0.11131367832422256,-0.5510339736938477,0.9660516977310181,-0.3773753046989441,-0.044599294662475586,0.6772710680961609,-0.6960015296936035,0.3227088451385498,-0.0502697117626667,-2.0900750160217285,-0.4492192566394806,0.491458922624588,-0.04311393201351166,-1.5289254188537598,1.4442765712738037,0.9999666213989258,-0.3736589252948761,-0.9670717120170593,0.5506837964057922,-0.5234844088554382,0.5363667607307434,1.3357652425765991,-1.2140092849731445,-0.4222574830055237,-0.6960368752479553,1.4955649375915527,1.0206037759780884,-0.3886968791484833,1.382265567779541,-0.22241489589214325,-1.3829478025436401,-2.0914289951324463,1.3412269353866577,0.29753103852272034,0.04777175560593605,2.5127146244049072,1.5897334814071655,1.3870837688446045,0.7142922878265381,1.8284918069839478,2.1161129474639893,0.26694977283477783,-0.4689776599407196,0.04164976626634598,-1.4613065719604492,-1.3547773361206055,-0.46000564098358154,0.9209743142127991,0.31337064504623413,-0.2894023060798645,-1.2977956533432007,0.7790148854255676,-0.9388748407363892,-0.10531625151634216,1.5928009748458862,0.46802446246147156,-1.3715249300003052,1.2086563110351562,0.9703173041343689,-3.083024263381958,-0.3813246488571167,0.5787957906723022,-0.13826027512550354,-2.309905529022217,-1.0517598390579224,0.5285894870758057,0.17278818786144257,0.2657080888748169,0.17448492348194122,-0.12242571264505386,0.9548930525779724,-0.26282963156700134,1.1511229276657104,-0.2777656614780426,-0.2480890303850174,0.12789805233478546,-1.34300696849823,0.411770224571228,0.002016834681853652,2.099926233291626,-0.21676737070083618,0.028955215588212013,-0.004793265368789434,-0.6278681755065918,-1.8177016973495483,-0.28010308742523193,0.4163055717945099,-1.8379606008529663,-1.1159172058105469,0.8856515288352966,0.6767961978912354,-0.6486377716064453,1.227921962738037,-0.12473180890083313,1.3654881715774536,0.19287823140621185,0.9861465692520142,-1.3220244646072388,0.5572726726531982,0.7937859296798706,-1.1691702604293823,0.7391782402992249,-0.6747287511825562,1.1629223823547363,-0.23844091594219208,-1.192288875579834,-1.0884790420532227,1.0923283100128174,-0.9293851256370544,-1.5593491792678833,1.1647393703460693,-1.8842531442642212,-1.116300106048584,0.8913092017173767,1.0900875329971313,-1.130864143371582,1.1396127939224243,1.1859567165374756,0.287794291973114,-1.1743366718292236,1.0840113162994385,0.9120198488235474,0.6392838954925537,-1.476983666419983,-1.646448016166687,2.1106367111206055,0.37610819935798645,0.42829179763793945,0.5640470385551453,-0.6953858137130737,-0.4888061583042145,-1.349877119064331,-1.0785837173461914,-0.6902791857719421,-0.17807632684707642,0.8173320889472961,-1.8335990905761719,0.4981555938720703,2.586073160171509,-2.1383087635040283,0.785853922367096,-1.6918989419937134,-1.4227111339569092,1.8573005199432373,0.044250208884477615,0.7403318881988525,-1.4533787965774536,1.8382081985473633,0.392528772354126,0.8547028303146362,1.734187126159668,-1.875325083732605,-1.6119132041931152,-1.2675009965896606,2.142458915710449,-0.9386423230171204,1.2434344291687012,0.43610844016075134,0.8980841040611267,-0.32229673862457275,0.1193016842007637,0.9313188791275024,0.003033042186871171,-0.20000864565372467,-0.5228195190429688,-0.9897831082344055,-0.72377610206604,0.6760801672935486,-0.4961509108543396,-0.9600350260734558,-0.40214434266090393,0.5233185887336731,0.5509482622146606,-0.7282699346542358,0.16313889622688293,-0.35018905997276306,-1.2623231410980225,1.030714988708496,0.2602396309375763,-0.28573673963546753,0.9155653119087219,0.653008222579956,-0.3888479173183441,0.2511081397533417,0.48062819242477417,0.5028486251831055,-1.2773921489715576,0.9515144228935242,-0.7557204365730286,-1.6499794721603394,0.14710159599781036,0.9684628844261169,0.051462333649396896,-0.9802882671356201,-0.9470839500427246,0.8534571528434753,0.0032393462024629116,0.07634502649307251,0.9303575158119202,0.03964816778898239,-1.0342577695846558,-0.03854075446724892,0.6910579204559326,-0.8417097926139832,0.0558612085878849,-0.26229843497276306,0.07859089970588684,-0.4844655990600586,0.03267957270145416,0.18069002032279968,-0.05300740897655487,0.0063490960747003555,0.01693788915872574,0.03444642201066017,-0.02868112549185753,-0.005680859554558992,-0.025700058788061142,-0.06793011724948883,-0.018561609089374542,0.05777701735496521,-0.0386529378592968,-0.0023722434416413307,0.05042942613363266,0.05247686058282852,-0.0543656162917614,0.03136525675654411,-0.037381406873464584,-0.024378882721066475,0.015441922470927238,0.006599182263016701,0.01547348964959383,-0.05525718629360199,0.017476554960012436,-0.00007903514779172838,-0.03856314718723297,-0.06515221297740936,0.008037570863962173]},"hiddenLayers":[{"inputMatrix":{"rows":20,"columns":24,"weights":[0.19685491919517517,-0.49165165424346924,0.04326480254530907,0.5743231773376465,1.4688224792480469,-0.5287020206451416,-0.8881472945213318,-0.43984538316726685,0.6587048172950745,0.9787569642066956,0.09460911154747009,-0.1634753942489624,-0.1397569477558136,0.3484576344490051,-0.914673924446106,-0.43805310130119324,0.6628993153572083,0.25907257199287415,-0.8344801068305969,-0.43678826093673706,1.0588725805282593,0.29503899812698364,-0.1734922081232071,-0.06390631943941116,-1.0739924907684326,-0.36204075813293457,1.0296746492385864,-0.24421782791614532,-0.0572395846247673,-0.9894039034843445,1.256105899810791,0.29515543580055237,-0.09304048120975494,0.5849238634109497,-0.3639827370643616,-1.2601852416992188,0.3256501853466034,1.2837376594543457,0.08122510462999344,0.39701929688453674,0.4834066331386566,0.17020322382450104,-0.3720095455646515,0.36419999599456787,-0.12249229103326797,-0.10941149294376373,0.2236241102218628,-0.4342101216316223,-0.17187495529651642,-0.453982949256897,-0.08348013460636139,0.2077735811471939,0.7910380959510803,-0.6151431798934937,0.29101619124412537,-0.4476902484893799,-0.06354988366365433,0.46230828762054443,0.7475283145904541,-0.25257575511932373,0.6498295068740845,0.7060880064964294,-1.089333176612854,-0.6945695877075195,1.0901557207107544,-0.34022367000579834,-0.851752519607544,-0.06012921780347824,0.22105459868907928,-0.16382691264152527,0.39858683943748474,0.1366405338048935,-0.2481686770915985,-0.39996954798698425,-0.19753754138946533,0.3093548119068146,0.3988748788833618,-0.7233582139015198,0.28581371903419495,-0.5237621068954468,-0.21254263818264008,0.5468226075172424,0.8286029696464539,-0.27376070618629456,0.7502718567848206,0.7202128171920776,-1.341536521911621,-0.7189915180206299,1.484259009361267,-0.3312895894050598,-0.6527618765830994,-0.22029174864292145,0.3876109719276428,-0.16074888408184052,0.33358705043792725,0.10545852035284042,-1.3938795328140259,-0.7970165014266968,0.9146105051040649,0.6229622960090637,1.17512047290802,-0.9645520448684692,1.5608147382736206,0.4218161106109619,0.44359543919563293,0.3108663856983185,-0.9263837337493896,-1.0187984704971313,-0.6600772738456726,0.4432026445865631,0.29396188259124756,0.9933392405509949,0.7628442049026489,0.8610782027244568,-0.08413481712341309,0.16579239070415497,1.3439438343048096,-0.047293391078710556,-0.12511835992336273,-0.6089091300964355,-0.8806203007698059,-1.1739048957824707,0.7608206272125244,-0.5468976497650146,-0.3221207559108734,-0.6234344244003296,1.2045947313308716,1.000980257987976,-0.373771607875824,0.2393447309732437,-1.100888729095459,-0.49462854862213135,0.036679744720458984,0.5452148914337158,-0.017395658418536186,1.480229139328003,1.349288821220398,-0.3360561430454254,0.6530899405479431,0.66594398021698,-0.3456074893474579,-0.7268893122673035,0.8949601054191589,-1.001589059829712,-0.02514667622745037,0.7995786070823669,-0.5374873280525208,0.3039388656616211,0.09033213555812836,-0.2902830243110657,-0.022116905078291893,-0.9028356075286865,0.36811697483062744,0.4022824764251709,1.1011017560958862,0.08922963589429855,-0.0014652140671387315,0.14571808278560638,-0.6372655034065247,-1.093204379081726,-0.9225994348526001,0.09501171112060547,-0.3138972818851471,-0.873090386390686,0.29821738600730896,0.7037421464920044,-0.6709984540939331,0.9570156931877136,-0.6360942125320435,-1.0862659215927124,0.5506843328475952,-0.25010672211647034,-0.7100290656089783,-0.5068020224571228,0.6709032654762268,0.6621267795562744,-0.3484245836734772,0.2462622970342636,-1.0602390766143799,-0.347213476896286,0.481423944234848,0.6016759276390076,-0.2641715109348297,1.2204021215438843,1.2981581687927246,-0.3213270604610443,0.8114932179450989,0.5702948570251465,0.01243060827255249,-0.6206346154212952,0.6759163737297058,-0.7688243389129639,-0.10955851525068283,0.5602303147315979,-0.23871123790740967,1.0345615148544312,0.4612540304660797,0.03587730973958969,0.014681819826364517,-1.171757459640503,0.9606242179870605,-0.09799636155366898,0.5597270131111145,-0.04231709614396095,-0.7797951698303223,0.12163878977298737,0.17740985751152039,-0.596296489238739,-0.42404574155807495,1.0452301502227783,-1.0240869522094727,-1.365494966506958,1.1386440992355347,1.365601897239685,-1.4591211080551147,1.1002181768417358,-0.4081723392009735,0.6227427124977112,0.5081032514572144,0.6028346419334412,0.40263062715530396,-0.2621259093284607,0.48561349511146545,-0.6058980226516724,0.7712911367416382,0.09678304940462112,0.496406227350235,-0.4408484399318695,-0.6246854662895203,0.21019211411476135,-0.040636904537677765,-0.44963639974594116,-0.6124446392059326,0.5739296078681946,-0.4062527120113373,-0.7496410608291626,0.5762731432914734,0.7227110266685486,-0.9806747436523438,0.637520432472229,0.27101972699165344,-0.3714832663536072,0.3167322874069214,0.4957645833492279,0.18931002914905548,0.33580344915390015,-0.28732961416244507,-0.13671153783798218,0.7885594367980957,0.04086247459053993,-0.7230715751647949,-0.0050659989938139915,-0.665646493434906,-0.4012446701526642,0.20167534053325653,0.6467328667640686,-0.39377743005752563,0.7822896242141724,0.0014844812685623765,-0.5042638778686523,0.4628775715827942,0.6199174523353577,-0.7607405781745911,-0.4404657185077667,0.6401110291481018,-0.2979933023452759,-0.8260104656219482,-0.38194212317466736,-0.43094950914382935,0.742985188961029,-0.5728136301040649,0.12178253382444382,-0.5723263025283813,-0.7871041297912598,-0.19920644164085388,0.8631133437156677,0.3425135910511017,-0.38453975319862366,0.8271927237510681,0.2425375133752823,-0.0646057054400444,-0.7996721863746643,0.7993556261062622,0.23615366220474243,-0.6212972402572632,-0.4403785765171051,0.4018840193748474,-0.3347924053668976,1.9668229818344116,0.11484402418136597,-1.3753739595413208,0.6969820857048035,0.6557267904281616,2.070733070373535,-2.8718438148498535,-0.25196385383605957,0.7748703956604004,-1.2073476314544678,-0.09955314546823502,0.6484131217002869,-0.9062172770500183,-1.8770332336425781,1.3543319702148438,-0.09340213984251022,-0.2546859383583069,0.7088221311569214,-0.3290328085422516,-0.31877627968788147,1.0491019487380981,0.3208771049976349,-0.4201841950416565,0.05464933440089226,-1.3208370208740234,-0.1211237981915474,0.8935844302177429,0.07411234825849533,-0.7314631342887878,-0.8050716519355774,1.4208190441131592,-0.10304012894630432,-0.17195039987564087,0.4514255225658417,0.38067540526390076,-1.1639320850372314,0.26691678166389465,0.8489641547203064,-0.32829681038856506,0.03900982812047005,0.23703719675540924,-0.01817113533616066,-1.4192445278167725,-0.04489092901349068,0.40496110916137695,-0.10116592794656754,0.21323134005069733,0.04730883613228798,0.7715948224067688,-0.516494870185852,-0.5870999097824097,0.29003849625587463,0.9292816519737244,-0.09784308075904846,-1.538537621498108,-0.23878192901611328,0.3135353922843933,0.4425021708011627,0.0546109639108181,0.23732662200927734,0.0941210389137268,-0.3236217796802521,-1.304490327835083,-0.40013647079467773,0.8379145860671997,-0.031881172209978104,-0.20879530906677246,0.012910505756735802,0.7582041025161743,0.03355025127530098,-0.002399422926828265,0.09890828281641006,-0.45337629318237305,-0.8023183345794678,-0.07206728309392929,-0.8568982481956482,0.9851365089416504,-0.9740284085273743,0.9538527131080627,0.4036908745765686,-0.9894424080848694,0.8809413909912109,-0.693793535232544,-0.34216877818107605,0.8131310939788818,1.1653457880020142,-0.22523853182792664,0.6210564970970154,1.0143412351608276,-1.0928325653076172,1.3157988786697388,-0.04491736739873886,-1.247894287109375,-0.28725504875183105,0.31781697273254395,-0.5478995442390442,-1.0719189643859863,0.05912727862596512,0.6402087807655334,0.15058627724647522,-0.14360985159873962,-0.9908877611160278,0.9623206853866577,-0.061310745775699615,0.046334732323884964,0.7587539553642273,0.4053736627101898,-1.1045233011245728,0.149827778339386,0.7507926821708679,-0.4683205783367157,-0.16025622189044952,0.04609648883342743,0.23919124901294708,-1.1614705324172974,-0.18060621619224548,0.9088517427444458,0.004526158794760704,0.06015120819211006,0.013145503588020802,-0.15513458847999573,-0.4330803453922272,-0.40384021401405334,-1.1293189525604248,1.021694302558899,-0.48367711901664734,0.35905659198760986,0.3228762149810791,-1.1555131673812866,0.5699026584625244,-0.23072558641433716,0.334546834230423,1.3574801683425903,0.6138785481452942,-0.13529816269874573,0.17057394981384277,0.26538345217704773,-1.7172318696975708,1.5095689296722412,0.44351378083229065,-2.0405995845794678,-0.7718320488929749,0.528124213218689,-0.2468142807483673,-0.634152889251709,0.963320255279541,0.4533438980579376,0.6178242564201355,-0.012456999160349369,-0.9303321838378906,0.6727911829948425,-0.5265954732894897,0.7695989012718201,-0.3379591107368469,0.40378451347351074,-1.1168185472488403,-0.6326959729194641,0.08005034923553467,0.7944635152816772,-0.377300888299942,-0.7160486578941345,0.7989009022712708,-1.19308340549469,-0.9640321731567383,0.44914939999580383,0.9156457781791687,-1.0340304374694824,0.7170554399490356,-0.5214765667915344,0.8996793627738953,0.5347230434417725,0.662120521068573,0.31190264225006104,-0.12410860508680344,0.45837342739105225,-0.6923686265945435,0.631290853023529,-0.05824269726872444,0.5996721982955933,-0.6819142699241638,-0.6649307608604431,0.08597428351640701,0.010888533666729927,-0.5110089182853699,-0.8104637861251831,0.511982262134552,-0.5251718759536743,-0.8281837701797485,0.6440243721008301,0.7468100190162659,-1.0186854600906372,0.7621025443077087]},"inputHidden":{"rows":20,"columns":20,"weights":[0.31728869676589966,0.01002783514559269,0.5179117321968079,0.5399319529533386,-0.8543775081634521,0.5117055177688599,-0.1632283478975296,0.5043027997016907,0.5056188106536865,0.3505988121032715,0.33602502942085266,0.15522615611553192,-0.23336383700370789,-0.007890484295785427,0.32327207922935486,1.1779968738555908,-0.009536916390061378,-0.4376182556152344,-0.5203118920326233,-0.26294034719467163,0.22683919966220856,0.12669166922569275,0.44842350482940674,0.3932722508907318,0.776012122631073,0.1630304455757141,-0.43708473443984985,1.029801607131958,0.07294826209545135,0.10881706327199936,0.29878470301628113,-1.0128527879714966,-0.2394549399614334,0.09232328087091446,0.31890374422073364,0.690622091293335,0.40762859582901,-0.6798858642578125,0.40043526887893677,0.2649326026439667,0.3512714207172394,0.4798445701599121,0.9755983948707581,0.9886019825935364,0.3511211574077606,-0.6634065508842468,-0.9449881911277771,-0.5335711240768433,0.3905305862426758,0.33609214425086975,0.8761285543441772,-0.9383156895637512,-1.5335090160369873,0.28417491912841797,0.5367768406867981,1.1639819145202637,-0.21331451833248138,-0.51813805103302,-0.293932169675827,-0.28377363085746765,0.4645547866821289,0.4136452078819275,1.2194713354110718,1.2120336294174194,0.7915058732032776,-0.6485279202461243,-1.0170536041259766,-0.5277220606803894,0.2213495969772339,0.47859007120132446,0.9773620963096619,-0.9198437929153442,-1.2302793264389038,0.2740364372730255,0.5825021862983704,1.2440690994262695,-0.25894051790237427,-0.787696897983551,-0.16028207540512085,-0.4254104197025299,-0.3569013774394989,-0.7976192235946655,-0.4728989601135254,-0.20098724961280823,0.5697949528694153,-0.373518168926239,0.06578746438026428,0.9842057228088379,-0.5183324813842773,-0.7292320728302002,0.40115484595298767,0.3360212743282318,0.5431964993476868,0.04814869910478592,-0.3570317327976227,-0.9986073970794678,0.5832540988922119,0.5776338577270508,0.6753228306770325,0.6758809685707092,0.7971174716949463,-0.1888478547334671,0.5876495838165283,0.47640460729599,0.5593639612197876,-0.08028066903352737,-0.6768702864646912,0.4949428141117096,0.2881280779838562,0.7701177000999451,0.32961568236351013,-0.30347946286201477,0.02366010844707489,0.3563990890979767,0.6214409470558167,-0.4762798249721527,-0.08711208403110504,1.3179517984390259,-0.6109204292297363,-0.8740919232368469,-0.2310258448123932,0.36260709166526794,0.1719522774219513,0.12821073830127716,0.7566081285476685,-0.12016234546899796,0.1939389556646347,-0.2178361862897873,0.12461991608142853,0.07114339619874954,-0.08221682161092758,-0.3879320025444031,-0.4086969792842865,0.3100278973579407,-0.3444153964519501,0.9327121376991272,-0.2898811399936676,-0.5245701670646667,-0.2849894165992737,-0.09751392155885696,0.4810478091239929,-0.2609482705593109,0.17596368491649628,0.10782457143068314,0.30146878957748413,0.4644361734390259,-0.2253911942243576,0.5409910678863525,0.6829293370246887,0.7146496772766113,0.5392310619354248,0.4202517867088318,-0.23419736325740814,-0.2511058449745178,0.3902949392795563,-0.5145267844200134,0.2833704352378845,0.7254192233085632,-0.6452568769454956,-0.5844221115112305,-0.42169660329818726,0.7584541440010071,-0.022190460935235023,-0.035584308207035065,-0.03243653103709221,-0.04189318045973778,0.2098514884710312,-0.7214850783348083,-0.503460168838501,-0.4958966076374054,-0.3700934052467346,-0.030371416360139847,0.04441353678703308,0.16389819979667664,-0.15031087398529053,-0.10852780938148499,-0.4628049433231354,-0.2686621844768524,0.2944991886615753,0.5617926120758057,-0.2821977436542511,-0.4290279448032379,-0.1095772236585617,-0.13477535545825958,-0.28722846508026123,0.21792519092559814,0.21222296357154846,0.31957072019577026,-0.3673327565193176,-0.46248751878738403,-0.20086543262004852,0.37530452013015747,0.07469538599252701,-0.4009687900543213,-0.10785465687513351,-0.46459177136421204,0.29573723673820496,0.2701024115085602,0.28479722142219543,0.4511988162994385,1.075493335723877,0.2379624992609024,0.5977048873901367,0.6465387940406799,1.047458529472351,0.0577111579477787,-0.9564806222915649,-0.019547108560800552,1.0562962293624878,1.0276603698730469,1.0180250406265259,-0.5353335738182068,-0.11692939698696136,0.13174399733543396,0.8778195977210999,1.3892598152160645,-0.0390273816883564,-0.5756820440292358,-1.1565405130386353,-1.0575170516967773,-1.4744611978530884,0.045503150671720505,-1.2251105308532715,-1.3081687688827515,1.8933601379394531,-1.0406538248062134,0.7731601595878601,1.4122415781021118,-0.7517386674880981,-0.8326975107192993,-0.9308661222457886,-0.08868938684463501,2.0245540142059326,-1.1999763250350952,-1.1724092960357666,-0.42805495858192444,-0.3763970732688904,0.6213438510894775,0.6902658939361572,1.1065871715545654,-0.4854907989501953,-0.991213321685791,-0.6095505356788635,-0.6120688915252686,1.0414060354232788,-0.9434006810188293,0.4232443571090698,1.4226194620132446,-0.08612526208162308,0.09140220284461975,0.26024651527404785,0.40489742159843445,-1.7755542993545532,-0.46545496582984924,-0.7299960255622864,-0.42160850763320923,-0.5466784238815308,-0.8393352627754211,0.004249964840710163,0.02209819108247757,-0.4513348340988159,0.5328603386878967,-0.4317687153816223,-0.44189584255218506,1.1073805093765259,-0.5426615476608276,0.1372644603252411,0.18493063747882843,-0.2324095368385315,-0.5071278214454651,1.109471082687378,-0.9518264532089233,-1.2744401693344116,-0.32719528675079346,-0.1854737102985382,-0.31908950209617615,0.2608017325401306,0.13991428911685944,0.0017782036447897553,0.428325891494751,0.41893473267555237,0.03715674951672554,0.4854463040828705,0.5198611617088318,-0.45983874797821045,0.007161731831729412,-0.8059014081954956,0.2428133189678192,0.29091838002204895,0.39433908462524414,0.6249005198478699,-0.21542194485664368,-0.32671046257019043,-0.02580280601978302,0.4653562307357788,1.9359498023986816,0.10500261932611465,-1.7606980800628662,-0.40427398681640625,-0.35948383808135986,-0.35522380471229553,0.05208467319607735,-0.8039128184318542,-0.7104535698890686,0.8598523736000061,0.5076141357421875,0.9004315137863159,0.03268790617585182,-0.27080440521240234,-0.17972135543823242,-0.44196227192878723,0.2064160853624344,-0.08202042430639267,0.3207014501094818,-0.8751593232154846,-0.8220602869987488,-0.3040609359741211,0.8333829045295715,0.2009611278772354,0.17252524197101593,-0.6192736029624939,0.4220217168331146,-0.5859849452972412,-0.45048007369041443,-0.28341323137283325,-1.0238004922866821,0.3611162602901459,0.6379841566085815,0.12272925674915314,-0.4737966060638428,-0.1699972301721573,-1.262921690940857,0.5788176655769348,-0.37423259019851685,-0.42589905858039856,0.9299872517585754,1.319666862487793,-0.6548601984977722,-0.3428971469402313,0.6737768650054932,-0.3933669626712799,0.1619880050420761,-0.6269258260726929,-0.7364616990089417,0.4484260678291321,0.1662590652704239,0.5707114338874817,0.24032075703144073,-0.27704814076423645,-0.26016247272491455,-0.09750974178314209,0.11381863057613373,1.1005592346191406,0.15156684815883636,-0.6275648474693298,-0.8487358093261719,-0.24064916372299194,0.7638633847236633,0.1882435530424118,0.233262300491333,-0.18216928839683533,-0.4933050870895386,-0.14012034237384796,-0.18496842682361603,-0.17898423969745636,0.27352067828178406,0.5224415063858032,0.39487749338150024,-0.3134141266345978,-0.41259047389030457,-0.1433490365743637,0.05281383916735649,-0.1094118282198906,-0.2856401801109314,-0.11588120460510254,-0.31719210743904114,-0.04738416150212288,0.15441104769706726,0.30969661474227905,0.3351172208786011,-0.4058002829551697,-0.38624897599220276,-0.4463682472705841,-0.500145435333252,-0.249244824051857,0.17534002661705017,0.39458581805229187,0.33194753527641296,-0.42725351452827454,-0.6621991991996765,-0.35611990094184875,0.3041151463985443,0.18305176496505737,-0.4108874201774597,-0.4141228199005127,-0.27613431215286255,0.2638152539730072,0.25147178769111633,0.40609583258628845,0.5908526182174683]},"inputBias":{"rows":20,"columns":1,"weights":[-0.5327345132827759,-0.7217404842376709,-0.21678426861763,-0.04220158979296684,-0.5232197046279907,-0.70320725440979,1.011399745941162,-0.28639140725135803,-0.4895322322845459,-0.542782723903656,0.2478790283203125,-0.46013084053993225,-0.158859521150589,-0.1445978581905365,0.8384334444999695,-0.2761208117008209,-0.37914812564849854,-0.4583543837070465,-0.16862119734287262,-0.6773858070373535]},"forgetMatrix":{"rows":20,"columns":24,"weights":[0.09089343249797821,0.3545433282852173,-0.19587263464927673,0.6557489633560181,-0.29509514570236206,0.3348751366138458,-0.3427251875400543,-0.47472333908081055,0.6906034350395203,-0.36187151074409485,0.5252611637115479,-0.09986401349306107,-0.6518349647521973,-0.29730066657066345,-0.03129386156797409,-0.3570612668991089,-0.41569963097572327,0.6245110630989075,-0.3987620174884796,-0.511389970779419,0.6591459512710571,0.5170345306396484,-0.3798394799232483,0.2908198833465576,0.9232825636863708,0.12508457899093628,-0.453254759311676,-0.0015982287004590034,1.8446835279464722,0.8797441124916077,-0.4473622739315033,0.13489356637001038,0.209562748670578,-1.0197234153747559,0.08151174336671829,0.8593867421150208,-0.20396742224693298,-0.6195006370544434,1.1253160238265991,-0.16210415959358215,-0.18575704097747803,0.9267224669456482,0.14251019060611725,0.1994209885597229,0.6151455640792847,0.12273624539375305,-0.2444787323474884,0.02314644865691662,-0.2766687572002411,0.39835208654403687,-0.1287507861852646,0.5949984788894653,-0.16606678068637848,0.07514296472072601,-0.06750235706567764,-0.6480225920677185,0.6777971982955933,-0.030123615637421608,0.52801513671875,-0.47860971093177795,-0.4487200081348419,-0.044485244899988174,-0.18511228263378143,-0.5151222944259644,-0.5028977394104004,0.41597700119018555,-0.43874409794807434,-0.5626530051231384,0.5968393683433533,0.6403496265411377,-0.41085755825042725,0.36735719442367554,-0.40544959902763367,0.41937145590782166,-0.06447435170412064,0.6507194638252258,-0.5164766907691956,0.012933745048940182,-0.021390901878476143,-0.5355357527732849,0.5694143772125244,0.04919840767979622,0.5832682251930237,-0.63471519947052,-0.5199850797653198,-0.1132751852273941,-0.14810362458229065,-0.4819049835205078,-0.44389423727989197,0.46157312393188477,-0.3435306251049042,-0.6504538655281067,0.5249150991439819,0.49154132604599,-0.3855136036872864,0.32706916332244873,0.7460442185401917,0.6383618712425232,-0.1815076321363449,1.2008671760559082,0.533805251121521,0.5662460327148438,-0.7769438624382019,-0.8301191926002502,1.0585689544677734,-0.6623370051383972,0.17549294233322144,0.2551332712173462,-1.1074855327606201,-0.9519360065460205,0.23582035303115845,-0.6755615472793579,-0.5308095216751099,0.7447658777236938,-1.1437594890594482,-0.824330747127533,0.6167116761207581,1.1007699966430664,-1.433493971824646,0.9749801754951477,0.04020024091005325,-0.2878967225551605,-0.18167641758918762,1.3810489177703857,-0.09255599230527878,-0.11042110621929169,-0.6264188289642334,-1.1884759664535522,0.4828934967517853,0.5510295033454895,0.7969028949737549,-0.07737278938293457,-0.33982884883880615,0.3989257514476776,-1.6837241649627686,-0.6105648279190063,-0.17674626410007477,-0.22109144926071167,-1.7496240139007568,-0.5826899409294128,0.8868188261985779,0.28855177760124207,-0.4761255979537964,-0.10487637668848038,-0.08107970654964447,0.05671529099345207,0.13300488889217377,0.3841281235218048,-0.9162002205848694,0.28884848952293396,-0.21660132706165314,-0.18124976754188538,0.2625943422317505,-0.35564878582954407,0.1460343897342682,-0.13008759915828705,-0.11661094427108765,-0.050834182649850845,-0.3661904036998749,-0.06756874918937683,-0.030759213492274284,0.03105904534459114,-0.27128544449806213,-0.31729817390441895,0.31114745140075684,0.12361238151788712,0.10603872686624527,0.01131649874150753,0.003689871635288,-0.5224400758743286,-0.09972690790891647,-0.5884019732475281,-0.26377224922180176,0.014741591177880764,0.02989215776324272,0.44841229915618896,-0.5859782695770264,-0.026484353467822075,-0.44319918751716614,0.2355555295944214,0.8593994975090027,-0.1347941905260086,-0.09171219915151596,0.43075570464134216,0.26295775175094604,-0.3263331353664398,0.12636512517929077,0.533186137676239,-0.2661038637161255,-0.5882824659347534,0.4816131293773651,-0.3047010898590088,0.2802889347076416,0.2739764451980591,0.2364984005689621,0.6356369853019714,-1.1958322525024414,0.6210252642631531,-0.3982181251049042,-0.03257559612393379,0.7793288826942444,-0.5513439774513245,0.13564631342887878,0.020634658634662628,-0.8017306923866272,-0.5583999752998352,0.13501018285751343,0.028606904670596123,-0.21152052283287048,0.76522296667099,-0.2043386697769165,-0.11735990643501282,0.8070929646492004,0.287422776222229,-0.1721133440732956,0.024455800652503967,-0.5601698756217957,0.4619317054748535,-0.11778099834918976,0.10036716610193253,-0.702016294002533,-0.42032390832901,0.31332993507385254,-0.5180641412734985,0.029962601140141487,0.39033350348472595,0.6011512875556946,-0.5266377925872803,-0.15402624011039734,0.3685534596443176,-0.5635330677032471,-0.6345378160476685,-0.5136415958404541,-0.09877127408981323,-0.11224426329135895,-0.2745119035243988,-0.1772596389055252,0.13816411793231964,-0.009269315749406815,0.5280970335006714,-1.2517032623291016,0.34593209624290466,0.5766297578811646,0.6131421327590942,0.4371993839740753,-0.8267170786857605,0.6668353080749512,-0.6980123519897461,0.8100517392158508,0.9073600769042969,0.30354177951812744,-1.4713428020477295,-0.738960862159729,0.7343738675117493,-0.6679080128669739,-0.41668567061424255,-0.3405398726463318,0.6100202798843384,-0.7060374617576599,-0.7317915558815002,0.855222761631012,0.8356518149375916,-0.6327207088470459,0.4559454619884491,0.8220595717430115,0.3280450701713562,-0.4543049931526184,-0.07573917508125305,0.8425481915473938,0.6835051774978638,-0.6862533092498779,0.09342662990093231,0.14461393654346466,-0.8715206384658813,0.07427553087472916,1.1835362911224365,-0.0686069056391716,-0.6858694553375244,1.189396858215332,-0.08345957100391388,-0.4645788073539734,0.07149529457092285,-0.17732752859592438,0.2997402548789978,0.08673561364412308,0.03416966646909714,-0.19281591475009918,0.31107082962989807,-0.02557113580405712,-1.0366796255111694,0.2485063374042511,-0.4635307788848877,1.7430399656295776,-0.26189178228378296,0.309350848197937,0.6215769052505493,-0.05888712778687477,0.4155123233795166,-0.6771271824836731,-0.013632524758577347,1.0454189777374268,0.6102323532104492,-0.3945005238056183,0.9045597910881042,0.6497789621353149,-0.475800096988678,-0.3195302486419678,0.03125392645597458,0.43792587518692017,-0.005862273741513491,0.12616047263145447,-1.1978322267532349,0.19612248241901398,0.5197417140007019,-0.7331019043922424,-0.11761321127414703,-0.12952914834022522,0.37702810764312744,-0.409365713596344,-0.2515679597854614,0.021830666810274124,-0.2627582252025604,0.4258817136287689,0.24051333963871002,-0.24227699637413025,-0.5474682450294495,0.2186145931482315,-0.38904663920402527,-0.751366138458252,-0.11705496162176132,0.335120290517807,-0.05985124781727791,-0.33462175726890564,-0.022953728213906288,0.05710791051387787,0.35775241255760193,0.3006504476070404,0.2266097366809845,0.005053143948316574,0.8024845123291016,-0.22906742990016937,0.5908495187759399,-0.5909608006477356,-0.2800523638725281,0.8238292932510376,-0.5413879156112671,0.30890145897865295,0.05873537436127663,-0.7516535520553589,-0.6782131195068359,-0.0020662432070821524,-0.14788568019866943,-0.14977028965950012,0.8520902991294861,-0.4468477666378021,-0.39676716923713684,0.9780552983283997,0.55318284034729,-0.4443059265613556,0.1508287936449051,0.46487200260162354,-0.2730104327201843,-0.2963068187236786,0.6220479011535645,1.8759894371032715,0.2838180661201477,-0.19955605268478394,-0.688256561756134,0.771865963935852,-0.13398197293281555,-0.015258566476404667,0.6599591970443726,-0.29522329568862915,0.03624846041202545,0.2463904619216919,-0.12277913838624954,0.021794328466057777,0.9460278749465942,-1.1371896266937256,-0.4393462538719177,0.9330148100852966,0.9040486812591553,-0.9125921726226807,0.20079152286052704,-0.12575332820415497,0.46011966466903687,0.10729832947254181,-0.18756353855133057,-0.553583562374115,-0.06641993671655655,0.20386317372322083,-0.272741436958313,-0.9688214063644409,-0.03270760551095009,0.4285634458065033,0.0813356414437294,-0.08131394535303116,0.12402541935443878,0.06834687292575836,-0.4044850468635559,-0.2650173008441925,-0.5396392941474915,0.513715386390686,0.4252099096775055,-0.3761071264743805,-0.6500200629234314,0.031077250838279724,0.23131468892097473,0.16946838796138763,0.45883825421333313,-0.6407490372657776,0.7291117310523987,1.0861445665359497,0.32522210478782654,-0.36193007230758667,-0.7206847071647644,0.5277411937713623,0.07058641314506531,0.3860991597175598,0.5755302906036377,-0.8926095366477966,-0.6498884558677673,-0.02452625334262848,-0.5894232988357544,-0.8647598624229431,0.38954684138298035,-1.0451139211654663,-0.6390442252159119,0.8576613068580627,0.7373258471488953,-0.7680550217628479,0.7293990850448608,-0.05151478573679924,-0.027003880590200424,0.2547614872455597,0.4398788511753082,-1.399234414100647,0.2862471640110016,-0.24872013926506042,0.1660458743572235,0.4828341603279114,-0.1123049408197403,-0.1868760734796524,-0.1647968739271164,-0.611300528049469,-0.2541828155517578,-0.3314714729785919,0.3731227517127991,0.22786085307598114,0.6440556645393372,-0.24826036393642426,0.2372165322303772,0.6304436326026917,-0.09535937011241913,0.24342666566371918,-0.22315147519111633,-0.7840835452079773,0.19371072947978973,0.021621063351631165,-0.18233059346675873,-0.6196177005767822,-0.6359243988990784,0.5447627305984497,-0.6317669749259949,-0.12762169539928436,0.6636149883270264,0.63079833984375,-0.7187593579292297,-0.1684742420911789,0.542125940322876,-0.7194149494171143,-0.5373214483261108,-0.2971803843975067,-0.030522510409355164,-0.20895889401435852,-0.46719521284103394,-0.26103752851486206,0.35290685296058655,-0.2720438539981842,0.5842192769050598]},"forgetHidden":{"rows":20,"columns":20,"weights":[0.1691228747367859,0.054033368825912476,0.06761369854211807,0.11582702398300171,0.2606179416179657,-0.5354201793670654,-0.07529282569885254,-0.29384398460388184,0.09806861728429794,0.03759019821882248,0.0784660130739212,-0.35740312933921814,-0.12448012083768845,0.040442146360874176,0.1863016039133072,0.27018824219703674,-0.0018126233480870724,-0.27025482058525085,-0.18281911313533783,-0.053897466510534286,-0.2832992672920227,-0.05888083949685097,-0.18711842596530914,-0.22061127424240112,0.5855598449707031,-0.5067373514175415,0.2494848072528839,-0.46713072061538696,-0.32468703389167786,-0.3666796088218689,-0.2395700067281723,-0.8839016556739807,0.2945098876953125,-0.010048308409750462,-0.20854452252388,0.9587620496749878,0.03283381089568138,-0.5448422431945801,0.31104180216789246,0.3103916347026825,0.01098823081701994,-0.048586487770080566,-0.013320780359208584,0.06169287487864494,0.3510022759437561,-0.33465197682380676,-0.04673151671886444,-0.24496757984161377,0.0831235721707344,-0.01641008071601391,0.07302945852279663,-0.2297273874282837,-0.17423197627067566,0.05097077041864395,0.07802943885326385,0.24800387024879456,0.07901446521282196,-0.24261638522148132,-0.10332458466291428,-0.022021988406777382,-0.038735274225473404,0.060903679579496384,-0.05179291591048241,0.01406385563313961,0.3362479507923126,-0.2791457176208496,-0.024837370961904526,-0.3025394082069397,-0.0391974076628685,-0.11678244173526764,-0.015617663972079754,-0.28858864307403564,-0.3977372944355011,-0.03459420055150986,-0.046136584132909775,0.40731433033943176,0.024109870195388794,-0.33137354254722595,-0.003551269182935357,-0.0034674364142119884,-0.012071401812136173,0.225036159157753,-0.3993743658065796,-0.395998477935791,0.32994771003723145,-0.5078758597373962,0.5534784197807312,-0.1525595486164093,1.2824686765670776,1.459657907485962,0.9646590948104858,0.1697765737771988,-0.3556104302406311,-0.35725146532058716,-0.2629478871822357,-0.07125867903232574,-0.08788789063692093,-0.21570171415805817,-1.000552773475647,-1.3302156925201416,0.09747692942619324,-0.2871076464653015,0.17037619650363922,0.09275685250759125,-0.7928716540336609,0.25475993752479553,-0.022666020318865776,0.30824172496795654,0.07790669053792953,0.25728839635849,0.5331818461418152,0.42851680517196655,0.4418444335460663,-0.1641523241996765,0.3259865641593933,1.267052173614502,0.12189872562885284,-0.9606611728668213,0.03217465803027153,-0.19895686209201813,0.6517215371131897,-0.03159427270293236,0.48235180974006653,0.46836256980895996,-0.11511626094579697,-0.32702767848968506,-0.4312552511692047,-1.193347454071045,0.5457059144973755,0.4707711338996887,0.4398450553417206,-0.24957537651062012,-0.8864225149154663,-0.020482413470745087,0.6196474432945251,1.5094033479690552,0.12136110663414001,-0.35901495814323425,-0.5753252506256104,-0.4362432062625885,-0.0581534318625927,0.07704713195562363,0.06686495989561081,0.03817477449774742,0.11809608340263367,-0.10933288931846619,-0.3264044523239136,-0.05574507638812065,0.10424384474754333,-0.004646932240575552,-0.11817045509815216,-0.13267813622951508,-0.22921104729175568,0.1362995207309723,0.19971856474876404,0.32243961095809937,-0.07687725871801376,-0.11602643132209778,-0.08870868384838104,-0.15682506561279297,0.40266892313957214,-0.14107432961463928,0.11027567833662033,0.09197765588760376,0.26345136761665344,-0.25980639457702637,-0.40067532658576965,-0.26889196038246155,0.27681663632392883,0.31827032566070557,0.30428722500801086,-0.3702571988105774,-0.5199650526046753,-0.009866541251540184,0.393161803483963,-0.04167330637574196,0.11608368903398514,-0.3088120222091675,-0.3127134442329407,-0.328065425157547,-0.335252046585083,-0.1118423119187355,-0.23164615035057068,-0.18542267382144928,-0.05205140262842178,-1.2088805437088013,0.22939538955688477,-0.3315846621990204,-0.11367908865213394,-0.34788456559181213,-0.31714504957199097,-0.4019213020801544,-0.21615102887153625,-0.23167410492897034,-0.31832823157310486,0.32935136556625366,0.37758103013038635,-0.29170066118240356,0.31625133752822876,0.3351537883281708,-0.050887420773506165,-0.19202908873558044,0.08574586361646652,0.06285200268030167,0.5389574766159058,-0.3180328607559204,0.04997357726097107,-0.09570144861936569,0.26456478238105774,0.07772179692983627,-0.12512004375457764,-0.24204854667186737,-0.43661558628082275,0.10046784579753876,-0.038375917822122574,0.162039116024971,0.08383005857467651,-0.22897641360759735,-0.18847757577896118,0.027431217953562737,-0.4534160792827606,0.21475882828235626,-0.49855783581733704,-0.5249609351158142,-0.4486028850078583,0.27566251158714294,0.7836290001869202,-0.20296089351177216,-0.49411025643348694,-0.13258476555347443,-0.4867587685585022,0.6805461049079895,0.5939518809318542,-0.014391748234629631,-0.8627105355262756,-0.35639387369155884,-0.1747143268585205,0.3635830581188202,0.1807798594236374,0.3205568790435791,0.2989698052406311,-0.5819466710090637,0.5974796414375305,0.7006464004516602,-1.153938889503479,0.9918639659881592,0.030480781570076942,0.820007860660553,0.43391332030296326,0.5011566281318665,0.11564841121435165,0.9830750226974487,1.136452078819275,-0.34017935395240784,0.19227460026741028,-1.0187151432037354,0.2909102737903595,0.6231580376625061,-0.6153995394706726,-0.5636178851127625,-0.20667167007923126,0.21224814653396606,-0.22330030798912048,-0.3513864576816559,1.0077440738677979,-1.0079092979431152,0.18137599527835846,-0.8246511220932007,-0.3491305410861969,-0.3936609625816345,-0.32692262530326843,-0.6122725009918213,-0.31157582998275757,0.1492072492837906,-0.231993168592453,0.5393553376197815,-0.056522924453020096,-1.2473857402801514,0.22382742166519165,0.42243170738220215,0.2362249493598938,0.1520671397447586,-0.02738366648554802,-0.019419260323047638,0.4008743464946747,-0.09022674709558487,-0.10524588823318481,-0.23018713295459747,0.1321687549352646,0.14172771573066711,0.28952810168266296,-0.31359726190567017,-0.3256607949733734,0.0628712847828865,0.260856956243515,0.2705051302909851,0.020102646201848984,-0.37589722871780396,-0.2590430676937103,-0.15601299703121185,0.5051118731498718,0.09371201694011688,-0.06341186910867691,-0.0965115949511528,-0.2186017632484436,0.30004364252090454,0.11009722203016281,0.12525106966495514,0.8561966419219971,1.2662404775619507,0.45639607310295105,0.011382915079593658,0.1393277943134308,0.18442051112651825,0.06480719149112701,-0.012640350498259068,-0.4174010455608368,-0.09852105379104614,-0.6910451650619507,-1.026841402053833,-0.1696503907442093,0.09588291496038437,-0.1526913344860077,-0.19750700891017914,1.6077635288238525,-0.9550586938858032,-0.21576565504074097,-0.5804013013839722,-0.39052265882492065,-0.3021729588508606,0.17355503141880035,0.18140730261802673,0.024265816435217857,0.09363476186990738,-0.22146748006343842,0.3783329129219055,-0.2907309830188751,-0.9603152275085449,0.23556703329086304,0.3165089786052704,-0.27789178490638733,0.7349579334259033,-0.19919779896736145,-0.06841655820608139,-0.08305487781763077,-0.1290474385023117,-0.036258548498153687,-0.7125669717788696,-0.2841945290565491,0.03542403131723404,-0.2598166763782501,0.14836135506629944,0.5626950860023499,0.019809523597359657,-0.0846593901515007,0.06039544567465782,-0.393248587846756,0.23059901595115662,0.08096899837255478,-0.10565345734357834,0.3110922574996948,-0.10287594050168991,0.08143041282892227,0.09305381774902344,0.18270014226436615,-0.17122727632522583,-0.1821451038122177,-0.45812100172042847,0.29262927174568176,0.18244503438472748,0.2781354784965515,-0.3520742654800415,-0.9146567583084106,-0.05667814984917641,0.28758662939071655,0.030074696987867355,0.07258965075016022,-0.33741146326065063,-0.23471008241176605,-0.2739408016204834,-0.4356405735015869,-0.16946592926979065,-0.22086843848228455,-0.212057426571846,-0.09865302592515945,-1.1531447172164917,0.16664016246795654,-0.32385531067848206,-0.3318273425102234,-0.44289493560791016,-0.3967546820640564,-0.41805315017700195,0.16218018531799316,-0.3338700532913208,-0.49340325593948364,0.17541639506816864,0.44582706689834595,-0.36045050621032715,0.40633493661880493,0.4096784293651581]},"forgetBias":{"rows":20,"columns":1,"weights":[0,0,0,0,0,0,0,0,0,0,0,0,0,0,0,0,0,0,0,0]},"outputMatrix":{"rows":20,"columns":24,"weights":[0.7162560820579529,0.8257089257240295,-0.8511936664581299,0.8634713292121887,0.697081446647644,0.5961556434631348,-0.8706730604171753,-0.9211405515670776,0.8051386475563049,-0.46685412526130676,0.9500993490219116,0.33085066080093384,-0.5821254253387451,-0.7971863150596619,0.5917096138000488,-1.1349257230758667,-0.750393271446228,0.8184952139854431,-0.6331056952476501,-0.9372701644897461,0.9403390288352966,1.2073920965194702,-1.0535491704940796,1.3246499300003052,0.2612473666667938,-0.2030780166387558,-0.5369027853012085,-0.7486220598220825,0.3470104932785034,0.15150399506092072,-0.2105109840631485,0.20569400489330292,-0.9023480415344238,-0.0013599517988041043,-0.07212547212839127,0.3345853090286255,1.0230456590652466,0.015073423273861408,0.3136690557003021,0.13742133975028992,0.019484177231788635,-1.0670993328094482,0.6407768726348877,0.5546967387199402,-0.9748761057853699,-0.7579044699668884,0.6113104224205017,-0.21775640547275543,0.5265018343925476,0.6203101873397827,-0.9583421349525452,0.5217542052268982,0.44319167733192444,0.3543895483016968,-0.4776957035064697,-1.079669713973999,0.18461816012859344,-0.10899367928504944,1.053981065750122,0.4080686867237091,-0.11345060914754868,-0.539909839630127,-0.0240513663738966,-1.1820868253707886,-0.49740296602249146,0.2661929428577423,-0.6394920945167542,-0.7906686067581177,0.4753597676753998,0.6279631853103638,-0.39844879508018494,1.0937647819519043,0.6502804160118103,0.6872372627258301,-1.0893216133117676,0.4974765479564667,0.4212707579135895,0.313762366771698,-0.5727900266647339,-1.0472263097763062,0.43739673495292664,-0.11636176705360413,0.9884283542633057,0.5283276438713074,-0.4064596891403198,-0.5764833092689514,0.03871449828147888,-1.078262209892273,-0.5646079778671265,0.4785607159137726,-0.5093517303466797,-0.625654399394989,0.6330729126930237,0.5463518500328064,-0.5007421970367432,1.0277609825134277,-1.1274714469909668,-1.163773536682129,0.37715208530426025,-0.010257021524012089,0.0935504287481308,-0.8213883638381958,0.850163996219635,1.030481219291687,0.09932295233011246,0.8291922807693481,-1.6743868589401245,-1.0381208658218384,-0.20423747599124908,0.2852671444416046,-0.2532937526702881,1.8057613372802734,1.1557960510253906,0.39614108204841614,0.5157756805419922,0.5504618287086487,0.0528998039662838,-0.3912030756473541,0.6067107915878296,-1.0622347593307495,-0.4995391368865967,-0.7974846363067627,0.7162841558456421,0.6582691669464111,1.414535403251648,-0.5704548358917236,0.6947346329689026,0.6993942856788635,0.7361693382263184,0.11014604568481445,-0.20993900299072266,-0.8482091426849365,0.2628154456615448,1.350663185119629,-0.39638474583625793,0.4143407940864563,1.2703672647476196,0.2510061264038086,0.013020283542573452,-0.25947874784469604,0.45964163541793823,0.11979176104068756,0.07765662670135498,-0.6032081246376038,0.7950350046157837,-0.7655515670776367,-1.037948727607727,-0.03271614387631416,0.986994206905365,-0.10465977340936661,-0.8621066212654114,-1.0087823867797852,-0.037224508821964264,0.5644938945770264,0.030753694474697113,0.26630279421806335,0.511538565158844,-0.26283469796180725,-0.5282251238822937,-0.4362846314907074,0.69683837890625,-0.5278767943382263,-0.28973665833473206,-0.7461270093917847,1.0177412033081055,0.6304816603660583,-0.5393760800361633,0.09451957792043686,-0.11230818182229996,-1.2995854616165161,0.4610213041305542,-0.3117724061012268,0.4374545216560364,-0.2026418000459671,0.6580801010131836,0.7011629939079285,-0.0534268282353878,-0.031877558678388596,-1.3549442291259766,-0.37496063113212585,0.3310568630695343,0.142778679728508,-0.12580779194831848,1.4237269163131714,1.4167944192886353,0.12639865279197693,0.9140046238899231,0.3040773868560791,-0.01677827350795269,0.04834327474236488,0.3965451717376709,-1.323403000831604,0.795808732509613,0.5787985920906067,-0.24790559709072113,0.9984689354896545,0.10607267171144485,0.929722785949707,-0.776386022567749,-0.15199190378189087,1.2949252128601074,-0.9962092638015747,0.021062733605504036,0.6138891577720642,-1.2655497789382935,-0.7772416472434998,1.0337785482406616,-0.018389437347650528,-0.5444566011428833,1.2409430742263794,0.14151687920093536,-0.4807533323764801,0.7080270648002625,0.8483831286430359,-1.0903764963150024,0.25632259249687195,0.7564300894737244,0.7659274339675903,-0.7312261462211609,1.1709173917770386,0.46573248505592346,0.8552750945091248,-0.6423325538635254,-0.6725136637687683,0.9811849594116211,-0.6833270192146301,0.7091304659843445,0.616110622882843,-0.6885403990745544,-0.7591875195503235,0.5183138847351074,-0.8087546229362488,-0.716545581817627,0.9953763484954834,-0.47183188796043396,-1.1320263147354126,0.7861045598983765,1.1157770156860352,-0.9857003688812256,0.8406434655189514,1.168972134590149,-0.8421307802200317,-0.5721725821495056,1.357595682144165,1.5861129760742188,0.559787392616272,-0.8909043669700623,-0.536417543888092,1.430436134338379,0.10328656435012817,-0.24806223809719086,0.24732287228107452,-0.6056638956069946,-0.15265582501888275,-0.6128084063529968,0.19272707402706146,0.5636512041091919,1.3188399076461792,-1.1809742450714111,-1.1626150608062744,1.9091529846191406,1.2011481523513794,-0.9140005707740784,-0.5357242822647095,0.05188019201159477,-0.3788938820362091,-0.361736923456192,-0.5809569358825684,0.4152362048625946,-0.21443188190460205,0.1807326227426529,0.4005401134490967,-0.7450399398803711,0.03281543031334877,-0.17829567193984985,-0.07574163377285004,0.7270436882972717,0.26536163687705994,0.1673000007867813,0.19057774543762207,0.27164384722709656,-1.3292523622512817,1.3902311325073242,0.43469518423080444,-0.9716213941574097,-0.5957424640655518,0.6214646100997925,-0.453755646944046,0.4410415589809418,-1.5757031440734863,-0.2780283987522125,0.4260791838169098,1.9332871437072754,-0.022461023181676865,-0.6310898661613464,0.3091740012168884,0.5254812836647034,0.024934427812695503,-1.174410343170166,-0.5734006762504578,-0.185261532664299,0.14314009249210358,-0.034677907824516296,1.110234260559082,1.3036491870880127,0.6110528707504272,-0.6590866446495056,-0.18445710837841034,1.3772157430648804,-0.14189599454402924,0.08574075251817703,-0.8904068470001221,0.4979191720485687,0.15058360993862152,-0.4860069453716278,0.22952957451343536,-0.004414628725498915,0.43314728140830994,-0.16394570469856262,-0.3023671507835388,-0.1731659471988678,-0.5785874128341675,0.9534536004066467,0.4416965842247009,0.45245909690856934,-0.46546250581741333,0.09784329682588577,-0.6618292927742004,0.053802840411663055,-0.29462823271751404,-1.151845932006836,-0.3343423306941986,-0.48297786712646484,0.11958440393209457,0.2632123529911041,0.3075241148471832,0.7176938056945801,1.015676736831665,-0.6627649068832397,0.5224125981330872,0.48618537187576294,0.3752753436565399,-0.9218578934669495,-1.1640595197677612,0.6363321542739868,-0.33126652240753174,0.6449882984161377,0.40843817591667175,-0.6771470308303833,-1.1796246767044067,0.5646422505378723,-1.077349066734314,-1.0562025308609009,0.6523616313934326,-0.7418237328529358,-0.9309582710266113,0.7077767252922058,0.9684348702430725,-1.2429529428482056,1.2476764917373657,0.5784469246864319,-1.7141193151474,-0.7089422345161438,0.16330108046531677,1.7331424951553345,0.34943509101867676,-0.566268801689148,0.15037506818771362,0.2303994745016098,0.004438553936779499,-1.246275544166565,-0.013735373504459858,0.16957512497901917,0.6272051334381104,-0.4255579113960266,1.0552754402160645,1.146153211593628,-0.10402809083461761,0.3937024772167206,-0.37829291820526123,0.4130185842514038,0.30743280053138733,-0.24331024289131165,-1.1225954294204712,-0.046589650213718414,-0.21799899637699127,0.03071572259068489,-0.15666751563549042,-0.29507192969322205,-0.15227141976356506,0.1755465716123581,0.1624191552400589,-0.5917119979858398,-0.1889548897743225,0.6456509828567505,-0.38602182269096375,0.8964897394180298,-0.11686903983354568,-0.4285748600959778,-0.18419085443019867,0.47975197434425354,-0.5631638765335083,-0.7943810224533081,0.1329844444990158,0.2733413577079773,-0.5750700831413269,0.6803861260414124,-0.19438901543617249,-0.0381421335041523,-0.7137133479118347,0.35270369052886963,-0.5155189037322998,-0.02317168191075325,-0.08203748613595963,0.27558794617652893,0.8799887895584106,-0.5449761748313904,-0.17905974388122559,-0.2013484388589859,-0.15610924363136292,0.8731766939163208,0.04035191610455513,0.5061484575271606,0.6398351192474365,0.9813917279243469,-1.011767864227295,0.5240837335586548,0.769547700881958,-0.6770800352096558,-0.9780242443084717,1.1672359704971313,-0.8866907954216003,0.18152925372123718,1.211753487586975,-0.15453334152698517,1.783196210861206,-0.32952743768692017,0.3848342001438141,-0.1713201254606247,-0.11897534132003784,1.5712001323699951,-1.119466781616211,0.30004560947418213,-0.027412284165620804,-1.2950276136398315,-0.5625945925712585,0.8369587659835815,-0.07107548415660858,-0.1416853815317154,1.684333324432373,-0.9987764358520508,-1.265598177909851,0.5749960541725159,1.33829665184021,-1.2572524547576904,0.5379922389984131,0.9826868772506714,0.6124909520149231,-0.8659830093383789,1.176037073135376,0.6874197125434875,0.8336902856826782,-1.0763649940490723,-0.9586336016654968,1.0081053972244263,-0.5578138828277588,1.074638843536377,0.4700324535369873,-0.5708282589912415,-0.6483365893363953,0.2097972333431244,-0.9960534572601318,-0.6325738430023193,0.7971788644790649,-0.8225913047790527,-1.0711098909378052,1.072196125984192,0.9304711818695068,-0.8622515797615051,0.8299503326416016]},"outputHidden":{"rows":20,"columns":20,"weights":[-0.47567018866539,0.29476627707481384,-0.10959272086620331,-0.15592239797115326,0.19413605332374573,-0.6871024966239929,0.21907386183738708,-0.6609628200531006,-0.47235047817230225,-0.5138275027275085,-0.3474138379096985,-0.4372478723526001,-0.3536592423915863,-0.2557377517223358,-0.48588311672210693,0.3699813783168793,0.010039590299129486,-0.3734208941459656,0.5951660871505737,0.49686798453330994,-0.9388641119003296,0.7596372365951538,-0.7379270195960999,-0.7541555166244507,0.7642845511436462,-0.28885090351104736,0.6178430914878845,-0.15103372931480408,-0.8951394557952881,-0.8905291557312012,-0.614662766456604,0.0051165008917450905,0.06237513944506645,-0.04294942319393158,-0.9874094724655151,1.0332005023956299,-0.3701222538948059,-0.5348362326622009,0.7148881554603577,0.8003005385398865,-0.23339956998825073,1.0252963304519653,0.49193909764289856,0.4737215042114258,1.076683759689331,-1.5972728729248047,-0.3524129390716553,-1.3030695915222168,-0.37110596895217896,-0.4024844169616699,-0.13225634396076202,-1.1516637802124023,-0.5374241471290588,0.33320286870002747,-0.14455336332321167,1.0643833875656128,-0.596662163734436,-0.637394905090332,0.4352208077907562,0.353956013917923,-0.004539517220109701,0.6603068113327026,0.30414554476737976,0.2596352696418762,0.9005841612815857,-1.1778603792190552,-0.22352397441864014,-1.227027416229248,-0.07902253419160843,-0.1709478348493576,0.02649674564599991,-0.9727303385734558,-0.6194941401481628,0.1986253708600998,0.11300124228000641,0.6764495968818665,-0.3907025456428528,-0.3250472843647003,0.12920373678207397,0.13052712380886078,0.24652907252311707,-0.10891810059547424,-0.07964406162500381,0.07934027165174484,0.6965383887290955,0.12308086454868317,-0.028501996770501137,0.13700972497463226,0.23033268749713898,0.4151129424571991,0.36940160393714905,-0.16310106217861176,0.4940950870513916,0.32425203919410706,0.05322589352726936,-0.3324394226074219,0.11730606853961945,-0.07297927141189575,-0.32768750190734863,-0.39905500411987305,0.32771942019462585,-0.8891880512237549,1.2986260652542114,0.6012493371963501,-0.07869713008403778,0.42271745204925537,-1.4776757955551147,0.4725290834903717,0.25933369994163513,0.5238168835639954,1.4760503768920898,0.7791540622711182,-0.926307737827301,-1.0910139083862305,0.323410302400589,-1.7147356271743774,-0.7315927147865295,1.2676278352737427,-0.2018657624721527,-0.4321953058242798,-0.24669978022575378,0.7284440994262695,1.0139491558074951,1.00408935546875,1.3069543838500977,-1.759167194366455,-0.7140547633171082,-1.407448172569275,0.43404465913772583,0.13918328285217285,0.7233209609985352,-1.3164491653442383,-0.5246883034706116,0.8982082605361938,-0.09787781536579132,2.007707118988037,-0.5791124105453491,-1.8116837739944458,-0.15715987980365753,-0.13285072147846222,0.4756026864051819,0.6628897786140442,-0.9547768235206604,-0.8985846042633057,0.6776821613311768,0.32039308547973633,0.8354162573814392,-0.4281120300292969,0.5617599487304688,0.747661828994751,0.5698976516723633,-0.24482204020023346,-1.5946834087371826,0.15486294031143188,0.35302361845970154,-1.0809297561645508,-0.7639768123626709,0.6010434627532959,-0.5956628918647766,-0.7458776235580444,0.08438696712255478,0.37494853138923645,-0.10406393557786942,-0.04893530160188675,0.11191403120756149,-0.2464558333158493,-0.20320992171764374,-0.6285028457641602,0.19182372093200684,0.17558681964874268,0.3415437638759613,-0.18445509672164917,-0.3214538097381592,-0.02581838145852089,0.18561862409114838,-0.675771951675415,-0.31029012799263,-0.5033129453659058,-0.18675945699214935,-0.19160254299640656,-0.09545369446277618,0.377109557390213,-0.12124662101268768,-0.06762202829122543,0.1820235550403595,-0.08190956711769104,0.058724913746118546,-0.6158932447433472,0.001101091387681663,-0.11888417601585388,0.0031646843999624252,0.02802165225148201,-0.2519727349281311,0.07163988053798676,-0.051262080669403076,-0.3007105886936188,-0.287838876247406,-0.0015610838308930397,0.08009502291679382,0.057636868208646774,0.811744749546051,0.6460691690444946,-0.08543381094932556,0.15467408299446106,1.232208251953125,-1.1212894916534424,-0.3518388569355011,-1.3569765090942383,0.5977782607078552,0.6032863855361938,0.4251739978790283,-1.1062045097351074,-0.5480672717094421,0.1347864866256714,0.5139277577400208,0.8767788410186768,0.126136913895607,-0.5490798950195312,-0.6618859171867371,-0.6341561675071716,-0.6640797853469849,-0.09105990082025528,-0.5684211850166321,-0.5944764018058777,0.648229718208313,-0.41571420431137085,0.5591408610343933,0.3047215938568115,-0.4547170102596283,-0.3856950104236603,-0.23570884764194489,0.16126832365989685,0.9903903603553772,-0.08121923357248306,-0.739198625087738,-0.41733497381210327,-0.04091712087392807,0.5697346925735474,0.3380250334739685,0.4175601601600647,1.134372353553772,-0.2900942265987396,1.1588804721832275,1.1195025444030762,-0.17298178374767303,-0.08484967797994614,-1.2750896215438843,0.24400855600833893,0.7188311219215393,1.218459963798523,0.9164169430732727,0.02557430788874626,-0.30049166083335876,0.32433760166168213,1.0395560264587402,-0.3913174867630005,-0.6614685654640198,0.3947083055973053,-1.1472879648208618,-1.335908055305481,-1.4029736518859863,0.871351420879364,-0.7406636476516724,-0.5772629976272583,1.4068872928619385,-1.7656941413879395,0.7821063995361328,-0.4074116051197052,-0.687707781791687,-0.8910791277885437,0.5999118685722351,-0.700339674949646,-0.0400494709610939,0.28901875019073486,-1.3943495750427246,-0.8462026715278625,-0.3958863317966461,0.055333930999040604,0.5235114097595215,0.9554680585861206,-0.6021410822868347,0.6122294664382935,-0.03461254760622978,0.04657568782567978,0.410976767539978,-0.9122494459152222,0.20723026990890503,-0.7984461188316345,-0.6007403135299683,-0.6504775285720825,-0.5007269382476807,-0.5292889475822449,-0.2934665381908417,-0.08512619882822037,-0.5194175243377686,0.9076095819473267,-0.21517904102802277,-0.8284392356872559,0.6725422143936157,0.701624870300293,0.3555346429347992,-0.6074157357215881,-0.9602781534194946,-0.9952871203422546,-0.2755386233329773,0.9398566484451294,0.6365646123886108,0.788085401058197,0.6309652924537659,0.7376611232757568,0.03658454492688179,0.6330743432044983,-1.5509272813796997,-0.16337314248085022,-0.1674213707447052,-1.0355311632156372,-0.05942501872777939,1.1138511896133423,-0.5282151103019714,-0.8942700028419495,-0.9561218023300171,0.9064448475837708,0.0168483667075634,0.17515277862548828,0.9877384901046753,-1.7229255437850952,-0.3426547050476074,0.2441949099302292,-0.67970871925354,-1.2433209419250488,-0.04360494762659073,-0.5393686294555664,2.420222520828247,0.0641995519399643,-0.8249039649963379,0.5243639349937439,0.2646803855895996,-1.5000953674316406,0.4279640316963196,1.3262542486190796,-0.13804511725902557,0.6630855798721313,-0.18314380943775177,-0.14162017405033112,0.3553144037723541,-0.1319563090801239,0.4154999852180481,-0.4815220832824707,-0.12911252677440643,0.11979687213897705,-0.04480912163853645,-0.21958597004413605,-0.16492697596549988,0.11387081444263458,-0.23798424005508423,0.06376964598894119,-0.23125983774662018,-0.01806918904185295,0.1460566222667694,0.03096865303814411,0.2225848138332367,-0.012272628024220467,-0.1947736144065857,-0.12606769800186157,-0.18311607837677002,0.47162941098213196,0.0020400406792759895,-0.33171916007995605,0.12023064494132996,0.19076982140541077,0.29089096188545227,-0.09055401384830475,-1.1718717813491821,0.03470838442444801,0.3291715085506439,-0.9845345616340637,-0.3408133387565613,0.3853777050971985,-0.0796368420124054,-0.17335207760334015,-0.08615021407604218,0.4039278030395508,-0.11379483342170715,-0.17098958790302277,-0.1677313894033432,-0.08126617223024368,0.11269284784793854,-0.9145464897155762,0.018721602857112885,-0.04013635963201523,-0.08645381033420563,-0.050140250474214554,-0.36600762605667114,-0.045983828604221344,-0.03638513386249542,-0.32505130767822266,-0.16129471361637115,-0.0243244506418705,0.016459207981824875,0.06161801517009735]},"outputBias":{"rows":20,"columns":1,"weights":[-0.02283351682126522,-0.273840069770813,0.11847768723964691,-0.006826709024608135,-0.5537893772125244,-0.6325228214263916,0.7767024636268616,-0.2015436589717865,-0.37609750032424927,-0.4284628629684448,0.12288916856050491,-0.6183280348777771,-0.2406577467918396,0.07720973342657089,0.9662570357322693,-0.2980321943759918,-0.2619936466217041,-0.9213721752166748,0.0029048367869108915,-0.5102245211601257]},"cellActivationMatrix":{"rows":20,"columns":24,"weights":[-0.41269001364707947,0.31658416986465454,0.13452325761318207,1.1797785758972168,0.597448468208313,-0.3110523223876953,0.13618044555187225,-0.554836630821228,1.3503944873809814,0.4137016534805298,0.34798189997673035,-0.6352661848068237,-0.8601000308990479,0.24082626402378082,-0.3139858543872833,-0.3271358609199524,-0.2937554717063904,1.3928940296173096,-1.317790150642395,-1.274617075920105,1.2992125749588013,1.2711986303329468,-1.2946282625198364,0.37323373556137085,-0.5908797383308411,1.2710764408111572,0.5397962331771851,1.2067078351974487,-1.346847653388977,-0.47709885239601135,0.4040776789188385,-0.6165132522583008,1.1995798349380493,-0.15401817858219147,0.6006178259849548,-0.6798812747001648,-1.2859162092208862,0.24794906377792358,0.1083885133266449,-0.5253212451934814,-0.6694092154502869,0.9409399032592773,-0.7099137306213379,-1.119137167930603,0.6701708436012268,1.360077977180481,-1.223252534866333,0.8165860772132874,-0.31741759181022644,0.4209897220134735,0.2230493277311325,0.7407225966453552,-0.19239255785942078,-0.21884006261825562,0.2267490029335022,-0.4566042125225067,1.1024701595306396,0.33904916048049927,0.2738499343395233,-0.438196063041687,-0.8351693749427795,0.10582828521728516,-0.3090466558933258,-0.2368519902229309,-0.3650708794593811,1.1558730602264404,-0.9160176515579224,-0.6787854433059692,1.2141258716583252,0.7427017688751221,-0.8251718282699585,0.3895755112171173,-0.177907794713974,0.4134472906589508,-0.003904552198946476,0.834068238735199,-0.07018852233886719,-0.008295020088553429,-0.050239309668540955,-0.4444054067134857,1.0327141284942627,-0.002721790922805667,0.42517590522766113,-0.46844324469566345,-0.6522262096405029,0.10249289125204086,-0.2684716284275055,-0.42845243215560913,-0.3591354489326477,0.9067909121513367,-0.3551739454269409,-0.8424556255340576,0.9627174735069275,0.8564367294311523,-0.6587840914726257,0.48798003792762756,-0.9743053317070007,0.1895395815372467,0.35700324177742004,0.2110050618648529,0.5051400065422058,-0.7450237274169922,0.7622503042221069,-0.24085848033428192,0.5054816007614136,0.8115484714508057,0.2883126139640808,-1.2698556184768677,-0.3246347904205322,0.7395887970924377,-1.2281945943832397,-0.39987340569496155,-0.08825034648180008,0.5395469069480896,-1.1060492992401123,-0.44630464911460876,0.15046782791614532,0.40915200114250183,-0.11845862120389938,0.33383727073669434,0.4486454427242279,-0.29515019059181213,-0.20399141311645508,-0.4076355993747711,-1.305776596069336,0.6779657602310181,-0.7204322814941406,0.3261575400829315,-0.786229133605957,-0.6835237741470337,-0.19984067976474762,0.2831450402736664,0.7542619109153748,-0.23810826241970062,0.8743930459022522,0.3907072842121124,0.17583440244197845,-1.021776795387268,0.9298132658004761,0.48195722699165344,-0.3138132095336914,-0.6436480283737183,0.21430078148841858,-0.30485644936561584,0.09174872189760208,-0.22999495267868042,-0.33388152718544006,-1.1043074131011963,0.3953842520713806,0.0003520169120747596,0.013456200249493122,0.1256486177444458,-1.3561561107635498,-0.11610864102840424,-0.04443131759762764,0.3147464394569397,1.042089581489563,0.20106981694698334,0.2503960132598877,0.014347561635077,0.18719780445098877,-1.3061705827713013,1.0403519868850708,0.38958096504211426,-1.4443511962890625,-0.5299350023269653,0.5383354425430298,-0.18787752091884613,-0.06040908396244049,-1.229997992515564,0.23770396411418915,0.13880354166030884,0.353770911693573,-0.2830665707588196,0.629123866558075,0.7673558592796326,-0.20994852483272552,0.17524456977844238,-1.1674165725708008,-0.37174174189567566,0.12782055139541626,0.621404230594635,0.4257267415523529,1.1279785633087158,1.2174956798553467,-0.22007152438163757,0.7813512682914734,0.6273168921470642,0.5736566185951233,-0.46844735741615295,0.2637184262275696,-1.2382556200027466,-0.15521709620952606,0.5250105261802673,0.07132212072610855,0.7407546639442444,0.09198110550642014,-0.24437247216701508,0.2007146179676056,-0.6700453758239746,0.9234333634376526,0.2524971067905426,0.24919827282428741,-0.3088919222354889,-0.7409505844116211,0.3087751865386963,-0.08860746026039124,-0.5548229813575745,-0.41493889689445496,0.8238725066184998,-0.4030493199825287,-0.8432298302650452,1.0477700233459473,0.93796706199646,-0.9050289392471313,0.5058125853538513,-0.010714503936469555,0.48993200063705444,0.10133355855941772,0.6263766884803772,0.15665948390960693,0.15614227950572968,-0.03682544454932213,-0.5941327214241028,0.9614467620849609,0.015243945643305779,0.27000343799591064,0.03177374601364136,-1.0832887887954712,0.014562506228685379,0.06107545271515846,-0.39593860507011414,-0.4833678901195526,1.1184688806533813,-0.0494588203728199,-0.8050224184989929,0.7887733578681946,0.8753284811973572,-1.1546052694320679,0.6878737211227417,-0.8101392388343811,-0.11990948021411896,0.5013023614883423,0.420309454202652,1.0495342016220093,-0.7513942122459412,0.6470695734024048,-0.6010414958000183,1.1914719343185425,0.8156372308731079,0.19357812404632568,-0.9165043830871582,-0.8725641369819641,0.7524426579475403,-0.743543803691864,-0.27041471004486084,0.023447785526514053,1.234129548072815,-1.33925461769104,-0.9590931534767151,1.4202616214752197,1.0461403131484985,-1.104150652885437,0.3283119797706604,0.16272620856761932,-0.3915516436100006,0.2529294490814209,-0.1297830194234848,-0.7106509208679199,0.524662435054779,-0.19238987565040588,0.242187038064003,-0.6721850037574768,-0.7694924473762512,-0.285725474357605,0.3684469163417816,0.37553298473358154,-0.22055375576019287,0.7531201839447021,0.4862540066242218,0.2457849532365799,-0.9085726737976074,0.8239132165908813,0.23308095335960388,0.10959357023239136,-0.3534054756164551,0.14948421716690063,-0.4127271771430969,1.1226505041122437,-0.6925637125968933,-1.206666111946106,-0.39125487208366394,1.8158957958221436,0.5497889518737793,-0.4032820463180542,0.4748784005641937,-0.5322974324226379,-0.6244065761566162,0.09871260076761246,1.0980134010314941,0.6945313811302185,-0.3588462769985199,0.28997430205345154,0.5374193787574768,0.4967484176158905,-0.4322691559791565,0.749505341053009,-0.4035874009132385,-0.533587634563446,-0.4096027612686157,0.405312180519104,-0.6875808835029602,-0.5210267305374146,0.752679705619812,-0.32796287536621094,0.8847026824951172,0.2102261483669281,-0.1192745566368103,-0.015646038576960564,-0.6297290325164795,0.8698424696922302,0.035356685519218445,0.7121532559394836,-0.597063422203064,-0.1777009218931198,-0.21158276498317719,-0.03319019451737404,-0.5173499584197998,-0.714862585067749,0.7585902810096741,-1.0243861675262451,-0.8201709389686584,0.5107788443565369,0.7767559885978699,-0.5952678918838501,0.5885825753211975,-0.2930334508419037,0.3493852913379669,-0.007258594501763582,1.175390362739563,0.222863107919693,-0.26970648765563965,0.1216568574309349,-0.5497095584869385,1.3974785804748535,0.1715153306722641,0.5310263633728027,-0.4887196719646454,-0.8392491340637207,0.1754150390625,-0.3847145140171051,-0.4817417562007904,-0.42596086859703064,1.213497281074524,-1.0287262201309204,-1.0404903888702393,1.3271071910858154,1.1256481409072876,-1.1122430562973022,0.5447363257408142,-0.3058391511440277,0.3807704746723175,0.0514468215405941,-0.15851451456546783,-1.5535485744476318,0.22927136719226837,-0.24204768240451813,-0.20520129799842834,-0.22324395179748535,-0.052542462944984436,0.584598183631897,-0.8955582976341248,0.06584055721759796,-0.6266995072364807,-0.7142103910446167,-0.39899590611457825,-0.49426305294036865,-0.3176928460597992,-0.3979267477989197,-0.19335316121578217,-0.28800952434539795,-0.21913595497608185,0.2637304961681366,0.3572618365287781,0.48946234583854675,-0.4754132926464081,-0.05015420541167259,-0.8602451086044312,-0.24776896834373474,0.04402906075119972,0.09542184323072433,0.3507053554058075,-0.808283805847168,-0.08164196461439133,-0.6076202392578125,0.5234655141830444,0.21396072208881378,0.20480749011039734,0.07697857916355133,0.2890818119049072,0.4543943405151367,-0.5826385021209717,1.0759774446487427,0.8969347476959229,-0.6170861124992371,-0.7805577516555786,0.7138606309890747,-0.372274249792099,0.8711551427841187,0.06407643854618073,-0.5341628789901733,-0.06292872875928879,-0.3071496784687042,0.8298225402832031,-0.7832846641540527,0.011095657013356686,-0.0770319327712059,-0.7398114800453186,-0.04980720579624176,0.8259876370429993,-0.23296405375003815,-0.5070950984954834,0.5301713347434998,-0.10843449085950851,-0.13300026953220367,-0.3542097508907318,0.7305037379264832,-0.03978411480784416,-0.16595987975597382,0.04716935753822327,-0.14236824214458466,-0.07349804788827896,0.4246448576450348,-0.5517553091049194,-0.0168625321239233,-0.9129744172096252,-0.2708418071269989,0.15387758612632751,-0.16878461837768555,0.7405483722686768,-1.1738287210464478,-0.23935583233833313,-0.2977220416069031,0.49825552105903625,1.2495982646942139,-0.09958957880735397,0.025696463882923126,0.3251252770423889,0.41948142647743225,-1.1952039003372192,0.16250571608543396,1.0116536617279053,-0.8370961546897888,-1.199446201324463,1.2522040605545044,-0.6267461776733398,0.348248690366745,-0.1285368651151657,-0.3171398639678955,-1.2030980587005615,-0.5645617842674255,0.11626021564006805,-0.26180317997932434,0.346811443567276,-1.4312458038330078,-0.18390294909477234,-0.14911967515945435,0.4028197228908539,1.0511904954910278,-0.32376134395599365,0.2422836571931839,0.1651313751935959,0.14232178032398224,-1.5020103454589844,0.7717593312263489,1.2057956457138062,-1.384474754333496,-1.3602110147476196,1.373541235923767,-0.23611868917942047]},"cellActivationHidden":{"rows":20,"columns":20,"weights":[0.1651414930820465,-0.2392946481704712,0.08380473405122757,0.22775378823280334,0.29367566108703613,-0.2437184602022171,-0.11024996638298035,-0.10573536157608032,0.13515879213809967,-0.012543275952339172,0.22495703399181366,-0.14707975089550018,-0.36466842889785767,-0.17807871103286743,0.08412670344114304,0.2208406627178192,0.31585219502449036,-0.33724433183670044,0.017098471522331238,-0.0962497815489769,-0.14659786224365234,-0.33548933267593384,-0.024456003680825233,0.007775863166898489,0.48174500465393066,-0.4372134804725647,0.21324463188648224,0.32038575410842896,-0.3347378671169281,-0.34173402190208435,-0.22372978925704956,-0.6199281215667725,-0.9392571449279785,-0.22476032376289368,0.024205518886446953,0.43531572818756104,0.1144724115729332,-0.945124089717865,0.11006485670804977,0.3163091242313385,0.1466653198003769,-0.04757111147046089,0.07869364321231842,0.2447240799665451,0.5386260747909546,-0.46586844325065613,-0.11838957667350769,-0.2975831925868988,0.28189817070961,0.15333500504493713,0.24340203404426575,-0.471478134393692,-0.6577234864234924,-0.28374171257019043,0.08515352010726929,0.5027623772621155,0.28904351592063904,-0.5283405184745789,-0.22972926497459412,-0.23082660138607025,0.05395428091287613,-0.1108098104596138,0.04734526202082634,0.04267365485429764,0.4663180410861969,-0.4690362215042114,-0.08998766541481018,-0.4426286816596985,0.17313805222511292,0.039425935596227646,0.0547199472784996,-0.5249173045158386,-0.6270536184310913,-0.1141924262046814,0.17054559290409088,0.5146948099136353,0.2074391394853592,-0.5634303092956543,-0.021229473873972893,-0.15586382150650024,-0.3231690227985382,-0.1040932685136795,-0.19409394264221191,0.02101116068661213,-0.002535350387915969,-0.12969665229320526,0.2813556492328644,-0.2628960907459259,0.3940594792366028,-0.10207726061344147,-0.7746023535728455,0.1671200841665268,0.31131285429000854,-0.17751480638980865,-0.09291569143533707,-1.213212251663208,-0.066856749355793,0.7619456648826599,-0.19167570769786835,0.510212779045105,0.10891541838645935,0.2050088793039322,0.35215169191360474,-0.08426258713006973,0.29383325576782227,-0.35354799032211304,-0.35315176844596863,0.12479504942893982,0.10660170763731003,0.08102652430534363,0.295276939868927,-0.7369626760482788,-0.1665772944688797,0.18257185816764832,0.27097102999687195,0.806573748588562,-0.26506516337394714,-0.6672395467758179,-0.2875334918498993,-0.036862969398498535,-0.45854631066322327,0.04792162403464317,-0.023592088371515274,-0.32464662194252014,-0.7736353874206543,0.4541521966457367,0.08669264614582062,0.42957955598831177,-0.597955584526062,-0.5475064516067505,-0.41413193941116333,0.5093604922294617,0.7018720507621765,0.3315763473510742,-0.3370215892791748,-0.5195474028587341,-0.38495171070098877,0.6809688806533813,0.4444673955440521,0.5216325521469116,1.0503722429275513,0.12054873257875443,0.5939157009124756,0.5324171185493469,0.9996160268783569,-0.28261664509773254,-0.49360474944114685,-0.3818213939666748,0.841621458530426,1.0005083084106445,0.8383007049560547,-0.5009705424308777,-0.8177034258842468,0.4219090938568115,0.9137476682662964,-0.06762215495109558,-0.3638881742954254,-0.06616499274969101,-1.1361892223358154,-0.9398784041404724,0.20758318901062012,-0.0748002827167511,0.2798151969909668,0.2619248330593109,0.0038884885143488646,-0.01499679870903492,-0.2605498433113098,-0.004409779794514179,0.12755221128463745,0.06804270297288895,0.16845613718032837,-0.027914293110370636,0.028789358213543892,0.03116203472018242,0.2955206036567688,0.03978149592876434,-0.03382199630141258,-0.048313576728105545,-0.22032344341278076,0.0020184610038995743,0.05746767669916153,-0.10437951236963272,0.12480214983224869,0.07376672327518463,0.12557153403759003,-0.042589221149683,-0.07206322252750397,-0.034645143896341324,0.03724151849746704,0.0030273282900452614,0.05541898310184479,-0.3261474668979645,-0.3404363989830017,-0.1823957860469818,0.11293351650238037,0.3967142701148987,0.1407688856124878,-0.2709960639476776,-0.025510605424642563,-0.06330256164073944,0.17777152359485626,-0.27757662534713745,-0.0498054139316082,0.1921122521162033,0.1356073021888733,-0.08924999088048935,0.062478914856910706,0.03514324501156807,0.35998398065567017,0.27334728837013245,-0.01767146587371826,-0.037652794271707535,-0.34918853640556335,-0.2016451060771942,-0.1071641817688942,0.11477871984243393,0.221877783536911,-0.13449658453464508,-0.2646256387233734,-0.33586129546165466,0.33626022934913635,0.208297997713089,0.25153613090515137,0.26498353481292725,0.32235637307167053,-0.40549877285957336,-0.4521748721599579,-0.17679500579833984,0.7545068264007568,0.7417106032371521,0.280503511428833,-0.5756137371063232,-0.12449236959218979,0.20594525337219238,0.3732646107673645,0.7268900871276855,-0.27992403507232666,-0.6310919523239136,-0.8294650316238403,-0.8037294149398804,0.1485767364501953,0.916980504989624,0.250338077545166,0.12588582932949066,0.3648279011249542,-0.22426891326904297,-0.28457096219062805,-0.44143733382225037,-0.08488945662975311,0.24648654460906982,0.013038747943937778,-0.7067857980728149,-0.3940102458000183,0.30613115429878235,0.140871062874794,-0.044742733240127563,-0.41962170600891113,-0.6455381512641907,-0.5602905750274658,-0.2213529497385025,0.03063269518315792,-0.2593657076358795,-0.09369160979986191,0.2548235058784485,0.5167641639709473,-0.6480215787887573,0.05886709317564964,-0.23737862706184387,0.18036307394504547,-0.06754273176193237,0.0487983264029026,-0.396701842546463,-0.8042954206466675,-0.3670785427093506,0.007792512886226177,0.6063011288642883,0.4942026436328888,-0.5929694175720215,0.12631158530712128,-0.011172845959663391,0.009927460923790932,-0.30854469537734985,-0.02415076084434986,0.19367100298404694,0.4583146274089813,-0.3807107210159302,-0.05609944090247154,-0.11474005877971649,0.10273906588554382,0.12640872597694397,0.09326561540365219,-0.302868515253067,-0.7375838756561279,-0.38137948513031006,-0.0013345176121219993,0.48515012860298157,0.3414202034473419,-0.3988554775714874,-0.07405044883489609,-0.06907841563224792,-0.9109647870063782,-0.6018095016479492,-0.7776756286621094,-0.6410543918609619,-1.0123780965805054,1.2871495485305786,0.8706035017967224,0.6669745445251465,-1.2767889499664307,-1.7224971055984497,-1.3272478580474854,1.0185695886611938,1.4424562454223633,-0.2643175721168518,-0.9554091095924377,-0.3403254449367523,0.5046924352645874,0.802701473236084,1.2562074661254883,1.4882112741470337,0.09482922405004501,0.4034760296344757,0.0390770249068737,-0.1441749930381775,-0.538080096244812,0.4824081063270569,-0.08612470328807831,-0.25746840238571167,-0.1299431174993515,0.09514038264751434,0.006628256756812334,0.505297839641571,0.6088911294937134,0.4767540991306305,0.011362855322659016,-0.6059055328369141,-0.41575706005096436,0.7485824823379517,0.07699541747570038,-0.11157157272100449,1.2319616079330444,0.1304672807455063,0.6911644339561462,0.6192768812179565,-0.31192177534103394,0.14504243433475494,-1.6127450466156006,-0.9150766730308533,0.6127888560295105,0.8023477792739868,0.8145912885665894,-0.689498245716095,-1.126583218574524,0.668236255645752,0.3794775903224945,1.286916732788086,0.008828563615679741,-1.0615005493164062,-0.5037018656730652,-1.3052284717559814,-0.06092150881886482,0.2712123394012451,-0.17890383303165436,-0.14671620726585388,-0.31610095500946045,0.1390460878610611,0.11612643301486969,0.05601451173424721,-0.10757546126842499,-0.04551718384027481,-0.1629336178302765,0.3297517001628876,0.5915738344192505,0.2040325105190277,-0.14857950806617737,-0.32172057032585144,-0.2056633085012436,0.25065672397613525,0.03578672558069229,0.0666506439447403,-0.09623759239912033,0.2503630518913269,-0.007960242219269276,-0.10081805288791656,-0.13671241700649261,0.17650561034679413,0.10991011559963226,-0.18570725619792938,-0.0239427387714386,-0.015102037228643894,-0.0031747089233249426,0.23215147852897644,0.4367927312850952,0.1816422939300537,-0.22542200982570648,-0.38844382762908936,-0.16361147165298462,0.535993754863739,0.16684812307357788,0.03288765624165535]},"cellActivationBias":{"rows":20,"columns":1,"weights":[-0.005816198419779539,-0.3138298988342285,0.06971803307533264,-0.026557454839348793,0.5785362124443054,-0.5282073616981506,-0.022150561213493347,-0.9304253458976746,-0.15745991468429565,0.031153462827205658,-0.013647655956447124,-0.684532880783081,-0.4481009840965271,0.22792837023735046,-0.07020395249128342,0.603881299495697,-0.3625636398792267,-0.5833515524864197,0.13113248348236084,0.16184458136558533]}},{"inputMatrix":{"rows":20,"columns":20,"weights":[0.8656297922134399,0.8808141350746155,0.13413508236408234,-0.18095234036445618,0.1955738216638565,-0.32724303007125854,0.3834182024002075,-0.3793726861476898,0.4607875943183899,0.5813882946968079,-0.3307758867740631,-0.08631395548582077,0.3107328712940216,0.39199137687683105,-0.6526821255683899,0.24044360220432281,-0.16652072966098785,-0.27805811166763306,-0.8107272982597351,-0.7638972997665405,1.189887285232544,0.9505014419555664,1.9730206727981567,2.617483139038086,-0.6478776931762695,-0.32164788246154785,-1.083807349205017,-1.1623646020889282,0.6647999882698059,0.8851931691169739,0.5445039868354797,0.09023812413215637,0.6474335789680481,0.986183226108551,1.1744486093521118,-0.33825981616973877,0.38476529717445374,0.6731791496276855,-0.8366021513938904,-0.9341851472854614,0.15956877171993256,-0.07212173193693161,0.5707387924194336,0.6602430939674377,0.1641978919506073,-0.1739972084760666,-0.8187530636787415,0.05109507218003273,-0.12768615782260895,0.002059656661003828,0.16213728487491608,-0.19907020032405853,-0.7262212038040161,0.41790446639060974,0.48786720633506775,0.814935028553009,-0.8927499651908875,-0.5025843381881714,0.1547660529613495,-0.2009846419095993,1.1423437595367432,0.7796759605407715,0.5923608541488647,0.43398764729499817,0.37754160165786743,-0.3775952160358429,-0.6387790441513062,-0.5626733303070068,1.272731900215149,1.2925232648849487,1.0473814010620117,0.04136011749505997,0.5233839154243469,0.6077304482460022,0.8920087218284607,0.0367535836994648,-0.36154547333717346,0.172753244638443,-1.427520751953125,-1.21657133102417,0.11135269701480865,-0.03535820171236992,0.16348521411418915,0.390545129776001,-0.19340217113494873,0.2859058678150177,-0.4642997682094574,-0.3265354037284851,-0.06095538288354874,0.019496656954288483,0.32142379879951477,0.46439579129219055,-0.32299643754959106,-0.49965357780456543,0.39521676301956177,0.4171624481678009,0.5206969380378723,-0.37066519260406494,0.03870600461959839,-0.12671206891536713,-0.3744018077850342,-0.9653302431106567,-0.03849264234304428,0.44966790080070496,-0.1321459710597992,0.5279068350791931,0.1980287879705429,0.7179659605026245,-0.5925421714782715,-0.15106548368930817,-0.4575582444667816,0.44363531470298767,-0.17802351713180542,0.09420941770076752,-0.26762717962265015,0.31705009937286377,0.6115871071815491,-0.1467244178056717,0.24577341973781586,-0.39667436480522156,0.1173655092716217,-0.9194954037666321,-0.3772430121898651,-0.2500081956386566,1.2897632122039795,0.542691707611084,0.526365339756012,0.85200035572052,0.2883348762989044,0.7454123497009277,0.6324606537818909,0.9245374798774719,-1.2202715873718262,-1.598002552986145,0.022873014211654663,-2.330730676651001,1.2990541458129883,0.94499272108078,-1.008527398109436,-0.9319944381713867,-0.4345163106918335,-0.12571503221988678,-0.5049861073493958,-0.4734880030155182,0.7073318958282471,-0.16015690565109253,0.4068331718444824,0.35236212611198425,-0.11844805628061295,-0.13003739714622498,-0.013129419647157192,0.27497416734695435,0.6771137714385986,-0.32753726840019226,-0.44256746768951416,1.5939452648162842,0.246085986495018,-1.2685917615890503,0.013440771959722042,0.07582765817642212,0.5592449903488159,0.49161767959594727,0.3092835247516632,-0.16063013672828674,0.24525633454322815,-0.41677170991897583,0.6839248538017273,-0.5013087391853333,0.507624626159668,0.7334039211273193,0.22425590455532074,0.3222111165523529,0.9664201736450195,0.4355786144733429,-0.2055104523897171,-0.5538418292999268,-0.4934237599372864,-0.13370607793331146,-0.7918888330459595,-0.770857572555542,-1.4108397960662842,-0.5262156128883362,-0.9130347967147827,-0.7886036038398743,0.7095007300376892,0.20200371742248535,1.0035357475280762,0.777448832988739,-1.908752202987671,-1.8073358535766602,-0.8048924207687378,0.7354891896247864,1.104935646057129,-0.6048634052276611,-1.2288445234298706,-0.6046962738037109,-0.21906831860542297,0.6405211091041565,1.429025411605835,1.6171555519104004,0.770367443561554,-1.9386677742004395,-0.18083003163337708,-0.1907328963279724,-0.09563404321670532,1.7042748928070068,0.36006587743759155,1.858153223991394,0.4776451289653778,0.6721500158309937,0.45495855808258057,1.3096816539764404,-0.8490214347839355,-1.9468581676483154,0.25211581587791443,-1.0996180772781372,1.9404176473617554,1.199321985244751,-0.8269689083099365,-0.7477800846099854,0.45503756403923035,0.4378353953361511,0.2002192735671997,0.25696924328804016,-0.5989134311676025,0.9000008702278137,-1.9558427333831787,1.098565697669983,1.139164924621582,1.011391520500183,0.5153310894966125,0.03258125111460686,0.23697152733802795,-0.46097269654273987,0.6091708540916443,0.47324469685554504,-0.2530754506587982,-0.8065992593765259,-1.2754383087158203,-0.9288405776023865,0.9247636795043945,0.20741771161556244,0.5118648409843445,0.235595703125,-0.8170967102050781,0.2525876760482788,-0.459541380405426,0.13073498010635376,0.36590588092803955,0.40217748284339905,1.1267200708389282,0.7029035091400146,1.1062800884246826,0.7016661167144775,0.21088586747646332,-0.8858938813209534,-0.409574419260025,0.47450485825538635,-0.3937239944934845,-0.59870445728302,-0.44508686661720276,0.9407749772071838,-0.071295827627182,-0.07077597081661224,1.397469401359558,-0.1423359215259552,0.2756606638431549,0.004207235295325518,0.48769107460975647,0.38834109902381897,0.6884660124778748,0.32879528403282166,0.7987185716629028,0.6920651197433472,-0.6983205676078796,-0.1594429612159729,-0.1862417459487915,-0.12573976814746857,-0.5704374313354492,-0.510842502117157,1.1297410726547241,0.6975768208503723,0.6000844836235046,0.6137414574623108,0.43985021114349365,-0.24367693066596985,-1.109041690826416,-0.29303690791130066,1.1078835725784302,1.1128178834915161,1.69484543800354,-0.009737668558955193,-1.0408916473388672,0.4438193142414093,1.0366884469985962,-0.212432399392128,-0.6846607327461243,1.069242000579834,-1.2192126512527466,-1.1132756471633911,-0.5272855162620544,-0.8324609994888306,-0.7706983685493469,-0.7656651735305786,-1.0377315282821655,1.0041481256484985,0.4933696389198303,1.3566393852233887,-0.5812762379646301,-0.558434784412384,-0.12530921399593353,1.370859146118164,1.0367348194122314,-0.8157957792282104,-0.925826370716095,1.2190768718719482,1.7172086238861084,-1.7039103507995605,0.7507287859916687,0.3752766251564026,0.27127835154533386,-1.5377967357635498,0.0161659587174654,0.19613291323184967,-0.7888727188110352,0.8572341799736023,-0.7902218103408813,1.3382681608200073,0.18615789711475372,0.5789117813110352,1.289716124534607,0.8975365161895752,-2.2772305011749268,-2.772231340408325,0.8543158173561096,-2.533220052719116,1.8017231225967407,0.611461877822876,-0.47709986567497253,-0.8230314254760742,0.23309770226478577,-0.16118785738945007,0.18728435039520264,-0.10115910321474075,0.8497413396835327,-2.454942464828491,-1.5890320539474487,-0.15261104702949524,-0.21758350729942322,0.2532576322555542,2.1513540744781494,2.728787660598755,1.4019434452056885,-0.3512322008609772,0.19891944527626038,1.055813193321228,0.3313189446926117,-0.8960888385772705,0.12616193294525146,-0.13944250345230103,0.0066659459844231606,0.5703917741775513,0.20002926886081696,0.36332282423973083,0.5750294327735901,-0.6936562061309814,-0.10298167169094086,-0.5028094053268433,-0.09237309545278549,0.06384925544261932,0.0824747234582901,0.173092320561409,-0.24275778234004974,0.007866720668971539,-0.03125356510281563,-0.020192665979266167,-0.10542277991771698,0.3386935293674469,0.2719646394252777,-0.044712018221616745,-0.025819115340709686,0.9427854418754578,0.7239840626716614,0.9767531156539917,0.3291061818599701,-0.2571709454059601,-0.7127023935317993,-0.08700220286846161,-0.036060601472854614,-0.05824234336614609,-0.44469788670539856,0.1694348305463791,0.7004136443138123,0.036404747515916824,1.076345443725586,0.07259979844093323,-0.40312913060188293,-0.17781572043895721,-0.1930055320262909,0.16026653349399567]},"inputHidden":{"rows":20,"columns":20,"weights":[1.0197207927703857,0.9010581970214844,0.8721144199371338,-0.169882133603096,0.09232151508331299,-0.2626313865184784,0.4716360569000244,-1.5450232028961182,1.0479847192764282,-0.6286267042160034,0.11152293533086777,-0.39311227202415466,-0.6795170307159424,1.171236276626587,0.2447279393672943,0.6255139708518982,-0.4716772735118866,-0.21216201782226562,0.20084381103515625,-0.6724887490272522,-1.4188988208770752,-1.6089844703674316,-0.16411857306957245,0.49414628744125366,0.31275466084480286,1.4483026266098022,-2.0065724849700928,-1.5669167041778564,-0.9163218140602112,1.3819283246994019,-0.8412703275680542,1.244081735610962,1.2105424404144287,-0.8134229183197021,-0.19525133073329926,0.7143198251724243,0.3739176392555237,1.9428436756134033,0.18013900518417358,-0.3807941675186157,-1.4144548177719116,-1.1740262508392334,-0.28529292345046997,1.33445143699646,-0.40425658226013184,-0.1892552226781845,0.9228728413581848,0.48019173741340637,-1.505306363105774,1.0380456447601318,-0.4076852798461914,0.8202680945396423,1.5280534029006958,2.4207210540771484,-2.0932204723358154,-1.1221295595169067,1.6888266801834106,2.6020262241363525,-0.7744899988174438,-0.5074331164360046,-0.06637690216302872,-0.8395406603813171,-0.5794855952262878,-0.3415045142173767,0.03290322422981262,-0.8371219038963318,0.9893471598625183,1.3668606281280518,-0.26541876792907715,0.3899879455566406,-0.14530310034751892,1.718295931816101,-0.13596680760383606,0.04624110460281372,0.02207951992750168,0.7388125061988831,1.4532184600830078,-0.4891621172428131,-0.22577163577079773,1.6188468933105469,-1.7476924657821655,-2.687983989715576,-0.4907766282558441,0.23635293543338776,-0.5957999229431152,-0.06045981124043465,0.44110772013664246,-0.27881792187690735,-1.602845549583435,0.858177125453949,-0.3840944468975067,0.48128342628479004,1.8777365684509277,2.250779151916504,-1.6802045106887817,-1.178539752960205,1.1191401481628418,1.890583872795105,-0.46149903535842896,-1.09237802028656,-1.1880619525909424,-0.8395776748657227,-0.3184705972671509,2.22942852973938,0.4170743525028229,0.25172796845436096,1.80522882938385,-1.1912270784378052,-1.3828048706054688,2.39811110496521,-0.5569287538528442,-1.0445468425750732,1.4528056383132935,3.2356414794921875,-0.9238510727882385,-0.8409965634346008,1.4284201860427856,-0.11192841082811356,0.07540129125118256,-0.6395304799079895,0.11699375510215759,1.178510069847107,-1.8286476135253906,-0.5288384556770325,-2.0352907180786133,-0.6981872320175171,0.8367512226104736,0.9692249298095703,0.27088579535484314,0.4078211188316345,2.231336832046509,-0.7973564863204956,-0.33877313137054443,0.35318267345428467,-0.03898881748318672,0.6622114181518555,0.3221505284309387,1.5288056135177612,-2.1808831691741943,0.35092878341674805,-0.2349347323179245,-0.6697993874549866,1.4840331077575684,0.3943345546722412,1.562585711479187,-2.246826171875,1.2391828298568726,-0.6936495900154114,-0.11149977892637253,0.7307407259941101,-0.8524655699729919,-0.6162946224212646,0.19084055721759796,0.8006627559661865,-0.4779626131057739,-2.629034996032715,1.1768194437026978,0.01810293458402157,2.027615547180176,-0.6278071403503418,0.9699909687042236,0.0008628303185105324,2.057399034500122,-0.898637056350708,1.4192322492599487,-1.6574583053588867,-0.0015614486765116453,-0.16509045660495758,1.1383975744247437,-0.3071986436843872,-0.0907299593091011,-0.5096829533576965,-0.7926549911499023,0.3214793801307678,0.881132960319519,-0.7839109301567078,0.17788176238536835,0.5307870507240295,0.797740638256073,-1.0213207006454468,0.5459534525871277,2.279768228530884,-1.7209850549697876,-0.6458383202552795,-0.970078706741333,0.17824555933475494,-0.7146643400192261,-0.6096140146255493,0.11273413896560669,0.7975366711616516,0.05914131551980972,0.08353453874588013,-0.3468681871891022,0.33595702052116394,0.4182405471801758,0.7351880669593811,-1.9716194868087769,-0.7286770939826965,-1.0967886447906494,0.01455024816095829,1.5777090787887573,-1.3320305347442627,0.5440365672111511,-0.1451755166053772,0.4391811788082123,-0.5828931331634521,0.8322004079818726,-2.2165539264678955,1.115043044090271,-1.2614474296569824,-0.5841791033744812,-1.0997395515441895,-1.3788264989852905,1.6481910943984985,0.007298310287296772,0.45700591802597046,1.2080711126327515,0.2406921237707138,-0.27771079540252686,-1.8030586242675781,1.5549769401550293,0.8327807188034058,0.1502837985754013,0.7077429294586182,0.742341935634613,0.2747195363044739,1.613107681274414,0.6986581683158875,0.36391451954841614,-0.6694746613502502,0.2485455572605133,-2.529106378555298,-1.2138969898223877,1.668448567390442,-0.383932501077652,-2.120866298675537,1.4316056966781616,-2.1382017135620117,0.48083972930908203,-0.8588072061538696,1.1129883527755737,0.5258053541183472,0.08641179651021957,-0.3244761526584625,-0.18399296700954437,0.9044475555419922,0.3552929759025574,0.17161442339420319,0.9029940962791443,0.28348445892333984,-0.27995938062667847,0.24825462698936462,-1.0571140050888062,0.5147514939308167,0.4998931586742401,1.0837881565093994,-0.05984367057681084,-0.2224615067243576,-0.1305011361837387,0.3818184435367584,0.11565829068422318,0.27852845191955566,-0.5143172144889832,-0.5859301686286926,-0.7340723872184753,-0.8219802379608154,1.201087474822998,2.077549695968628,-0.1265111267566681,1.8980648517608643,1.7525209188461304,1.1865471601486206,-0.292080819606781,-1.711970567703247,-0.03475083410739899,-1.8783599138259888,2.2948567867279053,1.972412347793579,-1.0517433881759644,-0.5661977529525757,0.22288119792938232,2.282168388366699,-0.3553623557090759,-0.6464954614639282,0.6175435781478882,-1.4494836330413818,1.8303743600845337,0.6794052124023438,0.48115649819374084,0.9348325133323669,0.7590054869651794,1.6702587604522705,-0.3822976052761078,0.8881232142448425,1.043331265449524,-0.13989216089248657,2.1125171184539795,0.782319188117981,0.4328429400920868,-0.5210332274436951,-0.9475075602531433,-2.512392520904541,-0.9142784476280212,0.39760902523994446,0.5262914299964905,0.7935897707939148,-0.515731692314148,0.3153591752052307,-1.0002477169036865,1.4174617528915405,-1.7544218301773071,0.25471723079681396,0.2995202839374542,0.4164711833000183,-0.5764481425285339,-0.09913865476846695,0.6798464059829712,1.4374785423278809,-1.2593742609024048,-1.1302659511566162,-0.4803077280521393,0.16240151226520538,-0.12934646010398865,-0.8282843232154846,-0.3954678773880005,0.8990642428398132,0.24467429518699646,-3.480987310409546,0.09181652218103409,2.1486339569091797,0.43421709537506104,-1.889829397201538,0.09021543711423874,-0.9784575700759888,0.7026351690292358,0.5599559545516968,0.30388304591178894,0.767549991607666,-1.035104751586914,-2.877578020095825,0.11636971682310104,-1.9328738451004028,-1.579331636428833,0.784005880355835,-2.479179859161377,1.1693977117538452,-0.7872530221939087,-0.45200902223587036,-0.012694771401584148,-1.1427499055862427,1.9619051218032837,-0.035669516772031784,0.14670000970363617,0.9675490260124207,-0.3553241789340973,-1.8448735475540161,0.6355194449424744,0.49109917879104614,-1.982711672782898,0.7105721831321716,-1.575592279434204,-3.0231382846832275,-0.7839717268943787,0.25218233466148376,-0.6487886905670166,-1.119953989982605,0.442269504070282,-0.7224647402763367,-1.627285361289978,1.2305413484573364,-0.08286557346582413,-0.29029345512390137,